<?xml version="1.0" encoding="ISO-8859-1"?>
<!-- This network was created in GeNIe Academic, which can be used for educational and research purposes only -->
<smile version="1.0" id="V1" numsamples="1000" discsamples="10000">
	<nodes>
		<cpt id="LVFAILURE">
			<state id="TRUE" />
			<state id="FALSE" />
			<probabilities>0.05107448925510745 0.9489255107448926</probabilities>
		</cpt>
		<cpt id="HISTORY">
			<state id="TRUE" />
			<state id="FALSE" />
			<parents>LVFAILURE</parents>
			<probabilities>0.9031910728269381 0.09680892717306186 0.01050119080236896 0.9894988091976311</probabilities>
		</cpt>
		<cpt id="HYPOVOLEMIA">
			<state id="TRUE" />
			<state id="FALSE" />
			<probabilities>0.1997230027699723 0.8002769972300278</probabilities>
		</cpt>
		<cpt id="LVEDVOLUME">
			<state id="LOW" />
			<state id="NORMAL" />
			<state id="HIGH" />
			<parents>HYPOVOLEMIA LVFAILURE</parents>
			<probabilities>0.9425058158856763 0.04619474908607511 0.01129943502824859 0.01003285716795811 0.08746683534517596 0.9025003074868658 0.9813281376846892 0.007144016885858094 0.01152784542945283 0.05064713836643663 0.8999569745183781 0.04939588711518537</probabilities>
		</cpt>
		<cpt id="STROKEVOLUME">
			<state id="LOW" />
			<state id="NORMAL" />
			<state id="HIGH" />
			<parents>HYPOVOLEMIA LVFAILURE</parents>
			<probabilities>0.9833831837819873 0.009305417082087071 0.007311399135925556 0.4985679897387241 0.4903449124101699 0.01108709785110608 0.9474752394869298 0.04294528332521513 0.009579477187855172 0.04904026833851396 0.9019326343887748 0.04902709727271132</probabilities>
		</cpt>
		<cpt id="CVP">
			<state id="LOW" />
			<state id="NORMAL" />
			<state id="HIGH" />
			<parents>LVEDVOLUME</parents>
			<probabilities>0.9489826119126895 0.03954864964853865 0.01146873843877173 0.04073952490377709 0.9487937047133771 0.01046677038284592 0.01028826246217551 0.2891702500398152 0.7005414874980093</probabilities>
		</cpt>
		<cpt id="PCWP">
			<state id="LOW" />
			<state id="NORMAL" />
			<state id="HIGH" />
			<parents>LVEDVOLUME</parents>
			<probabilities>0.9519792822789492 0.03788383277839437 0.01013688494265631 0.03986887991284035 0.9492218907744935 0.01090922931266622 0.01014492753623188 0.04019748367574454 0.9496575887880234</probabilities>
		</cpt>
		<cpt id="INTUBATION">
			<state id="NORMAL" />
			<state id="ESOPHAGEAL" />
			<state id="ONESIDED" />
			<probabilities>0.9197541357919754 0.02979303540297931 0.05045282880504529</probabilities>
		</cpt>
		<cpt id="KINKEDTUBE">
			<state id="TRUE" />
			<state id="FALSE" />
			<probabilities>0.04004459955400446 0.9599554004459956</probabilities>
		</cpt>
		<cpt id="DISCONNECT">
			<state id="TRUE" />
			<state id="FALSE" />
			<probabilities>0.0999340006599934 0.9000659993400066</probabilities>
		</cpt>
		<cpt id="MINVOLSET">
			<state id="LOW" />
			<state id="NORMAL" />
			<state id="HIGH" />
			<probabilities>0.05000283330500029 0.9003743295900375 0.04962283710496228</probabilities>
		</cpt>
		<cpt id="VENTMACH">
			<state id="ZERO" />
			<state id="LOW" />
			<state id="NORMAL" />
			<state id="HIGH" />
			<parents>MINVOLSET</parents>
			<probabilities>0.05043991201759648 0.9314637072585482 0.009848030393921216 0.008248350329934012 0.05018103266362354 0.009598618376481302 0.9302663290351958 0.009954019924699296 0.05243804150715294 0.009117469272617369 0.01012492444086238 0.9283195647793674</probabilities>
		</cpt>
		<cpt id="VENTTUBE">
			<state id="ZERO" />
			<state id="LOW" />
			<state id="NORMAL" />
			<state id="HIGH" />
			<parents>DISCONNECT VENTMACH</parents>
			<probabilities>0.9799440298507462 0.002332089552238806 0.007929104477611941 0.009794776119402986 0.9634038800705467 0.01102292768959436 0.01102292768959436 0.01455026455026455 0.9722089552238806 0.008746268656716419 0.0108955223880597 0.008149253731343283 0.01011560693641619 0.004335260115606936 0.9792870905587668 0.006262042389210019 0.9669150355871886 0.01162144128113879 0.01117660142348754 0.01028692170818505 0.9718612554978009 0.007447021191523391 0.01064574170331867 0.01004598160735706 0.0103363537609623 0.9690836711443181 0.0104025912089659 0.01017738388575365 0.007211060274517605 0.01357668589616073 0.01079172468669186 0.9684205291426299</probabilities>
		</cpt>
		<cpt id="VENTLUNG">
			<state id="ZERO" />
			<state id="LOW" />
			<state id="NORMAL" />
			<state id="HIGH" />
			<parents>INTUBATION KINKEDTUBE VENTTUBE</parents>
			<probabilities>0.9723001402524544 0.01157082748948107 0.008765778401122019 0.007363253856942496 0.9688081936685289 0.008659217877094972 0.009776536312849162 0.012756052141527 0.9866071428571428 0.004464285714285714 0.004464285714285714 0.004464285714285714 0.9609375 0.005580357142857142 0.01004464285714286 0.0234375 0.2939794289767689 0.6851835431814152 0.01024117751374357 0.01059585032807235 0.9499606869758265 0.03006675505673409 0.01025607424765664 0.009716483719782931 0.00595667870036101 0.01028880866425993 0.01101083032490975 0.9727436823104693 0.01133268482490273 0.9714494163424126 0.009970817120622569 0.007247081712062257 0.9464285714285714 0.01785714285714286 0.01785714285714286 0.01785714285714286 0.9520202020202021 0.03282828282828283 0.002525252525252525 0.01262626262626263 0.08333333333333333 0.75 0.08333333333333333 0.08333333333333333 0.7083333333333333 0.04166666666666666 0.2083333333333333 0.04166666666666666 0.9661552346570398 0.01489169675090253 0.007671480144404333 0.01128158844765343 0.4972592945662536 0.4843898951382269 0.009652049571020019 0.008698760724499523 0.9868421052631579 0.004385964912280702 0.004385964912280702 0.004385964912280702 0.001602564102564103 0.01442307692307692 0.9823717948717948 0.001602564102564103 0.3097826086956522 0.6576086956521739 0.005434782608695652 0.02717391304347826 0.988993710691824 0.007861635220125786 0.001572327044025157 0.001572327044025157 0.125 0.125 0.625 0.125 0.9166666666666666 0.02777777777777778 0.02777777777777778 0.02777777777777778 0.9703685258964143 0.01020916334661355 0.01120517928286853 0.008217131474103585 0.2958906071019473 0.6801975945017182 0.01267182130584192 0.01123997709049255 0.8935185185185185 0.04166666666666666 0.04166666666666666 0.02314814814814815 0.02177700348432056 0.01829268292682927 0.01829268292682927 0.9416376306620209</probabilities>
		</cpt>
		<cpt id="VENTALV">
			<state id="ZERO" />
			<state id="LOW" />
			<state id="NORMAL" />
			<state id="HIGH" />
			<parents>INTUBATION VENTLUNG</parents>
			<probabilities>0.9709385947423884 0.009758337842841275 0.009274159095440175 0.01002890831933012 0.009700769603358269 0.01034659060330445 0.009270222270060816 0.9706824175232764 0.005591054313099042 0.01198083067092652 0.9736421725239618 0.008785942492012781 0.03183646112600536 0.9478328865058088 0.01217605004468275 0.008154602323503127 0.0104524627720504 0.9755154639175259 0.005870561282932417 0.008161512027491409 0.970203488372093 0.007994186046511628 0.007025193798449613 0.01477713178294574 0.02374301675977654 0.01256983240223464 0.01256983240223464 0.9511173184357542 0.009615384615384616 0.9326923076923077 0.04807692307692308 0.009615384615384616 0.0108210620258813 0.01260597947344935 0.9630745203034359 0.01349843819723338 0.008766501650165017 0.9699876237623762 0.0116542904290429 0.009591584158415841 0.97265625 0.00390625 0.01953125 0.00390625 0.01953125 0.8851562500000001 0.08828125000000001 0.00703125</probabilities>
		</cpt>
		<cpt id="ARTCO2">
			<state id="LOW" />
			<state id="NORMAL" />
			<state id="HIGH" />
			<parents>VENTALV</parents>
			<probabilities>0.009821676679985819 0.009893542606912544 0.9802847807131015 0.007468394295226527 0.008953075088855896 0.9835785306159176 0.03808333333333333 0.9243333333333332 0.03758333333333333 0.8982352838091233 0.09144279130084294 0.01032192489003382</probabilities>
		</cpt>
		<cpt id="INSUFFANESTH">
			<state id="TRUE" />
			<state id="FALSE" />
			<probabilities>0.09970400295997041 0.9002959970400297</probabilities>
		</cpt>
		<cpt id="FIO2">
			<state id="LOW" />
			<state id="NORMAL" />
			<probabilities>0.04987450125498746 0.9501254987450126</probabilities>
		</cpt>
		<cpt id="PVSAT">
			<state id="LOW" />
			<state id="NORMAL" />
			<state id="HIGH" />
			<parents>FIO2 VENTALV</parents>
			<probabilities>0.9998131539611359 9.342301943198802e-05 9.342301943198802e-05 0.934934934934935 0.05205205205205206 0.01301301301301301 0.9969418960244647 0.001529051987767584 0.001529051987767584 0.01070336391437309 0.9453363914373087 0.04396024464831804 0.9909605546886442 0.009034395341908181 5.049969447684841e-06 0.9505911167632237 0.03989449390042862 0.009514389336347793 0.948541721737598 0.04106088642171116 0.01039739184069081 0.0101010101010101 0.008723599632690543 0.9811753902662993</probabilities>
		</cpt>
		<cpt id="PULMEMBOLUS">
			<state id="TRUE" />
			<state id="FALSE" />
			<probabilities>0.00993490065099349 0.9900650993490065</probabilities>
		</cpt>
		<cpt id="SHUNT">
			<state id="NORMAL" />
			<state id="HIGH" />
			<parents>INTUBATION PULMEMBOLUS</parents>
			<probabilities>0.1015200868621064 0.8984799131378937 0.9495645584633801 0.05043544153661991 0.14 0.86 0.949086603518268 0.05091339648173208 0.01 0.99 0.04612767660596358 0.9538723233940364</probabilities>
		</cpt>
		<cpt id="SAO2">
			<state id="LOW" />
			<state id="NORMAL" />
			<state id="HIGH" />
			<parents>PVSAT SHUNT</parents>
			<probabilities>0.9803126700823904 0.009885892310868385 0.009801437606741365 0.981196581196581 0.009513192121887771 0.009290226681531026 0.009501648245103743 0.9839053713399264 0.006592980414969945 0.9851851851851853 0.007407407407407409 0.007407407407407409 0.009464409464409466 0.009999009999009999 0.9805365805365805 0.6654793707331552 0.3217571979815969 0.01276343128524785</probabilities>
		</cpt>
		<cpt id="ANAPHYLAXIS">
			<state id="TRUE" />
			<state id="FALSE" />
			<probabilities>0.00995490045099549 0.9900450995490045</probabilities>
		</cpt>
		<cpt id="TPR">
			<state id="LOW" />
			<state id="NORMAL" />
			<state id="HIGH" />
			<parents>ANAPHYLAXIS</parents>
			<probabilities>0.9752342704149932 0.01238286479250335 0.01238286479250335 0.2986923351446714 0.4010901696193497 0.300217495235979</probabilities>
		</cpt>
		<cpt id="CATECHOL">
			<state id="NORMAL" />
			<state id="HIGH" />
			<parents>ARTCO2 INSUFFANESTH SAO2 TPR</parents>
			<probabilities>0.02205882352941176 0.9779411764705882 0.01807228915662651 0.9819277108433735 0.6578947368421052 0.3421052631578947 0.0125 0.9875 0.0625 0.9375 0.7794117647058824 0.2205882352941176 0.007261410788381743 0.9927385892116183 0.06078767123287671 0.9392123287671232 0.9595588235294118 0.04044117647058824 0.004807692307692308 0.9951923076923077 0.04344624447717231 0.9565537555228276 0.7098393574297188 0.2901606425702811 0.004010695187165775 0.9959893048128342 0.0588865096359743 0.9411134903640257 0.9488304093567251 0.05116959064327485 0.04690594059405941 0.9530940594059406 0.05106504374286801 0.948934956257132 0.9401592435929336 0.05984075640706644 0.01363636363636364 0.9863636363636363 0.02528089887640449 0.9747191011235955 0.7178571428571429 0.2821428571428571 0.08333333333333333 0.9166666666666666 0.03846153846153846 0.9615384615384616 0.4375 0.5625 0.03409090909090909 0.9659090909090909 0.09016393442622951 0.9098360655737705 0.9883720930232558 0.01162790697674419 0.009364820846905538 0.9906351791530945 0.04556882463859208 0.954431175361408 0.6840949033391915 0.3159050966608084 0.006666666666666667 0.9933333333333334 0.03378378378378379 0.9662162162162162 0.9910714285714285 0.008928571428571428 0.05220417633410673 0.9477958236658932 0.04600694444444444 0.9539930555555555 0.9850917431192661 0.01490825688073395 0.0105467068445975 0.9894532931554025 0.008498092265001735 0.9915019077349982 0.1004640371229698 0.8995359628770302 0.03125 0.96875 0.008620689655172414 0.9913793103448276 0.08333333333333333 0.9166666666666666 0.01785714285714286 0.9821428571428571 0.01351351351351351 0.9864864864864865 0.4375 0.5625 0.01040159640808182 0.9895984035919182 0.01082284018716476 0.9891771598128353 0.1005681529954852 0.8994318470045147 0.008274231678486997 0.9917257683215129 0.008411214953271028 0.991588785046729 0.2691326530612245 0.7308673469387754 0.005434782608695652 0.9945652173913043 0.004464285714285714 0.9955357142857142 0.2641129032258064 0.7358870967741935</probabilities>
		</cpt>
		<cpt id="HR">
			<state id="LOW" />
			<state id="NORMAL" />
			<state id="HIGH" />
			<parents>CATECHOL</parents>
			<probabilities>0.05028475711892796 0.9052596314907871 0.04445561139028474 0.01020891632982425 0.09135092317031641 0.8984401604998593</probabilities>
		</cpt>
		<cpt id="CO">
			<state id="LOW" />
			<state id="NORMAL" />
			<state id="HIGH" />
			<parents>HR STROKEVOLUME</parents>
			<probabilities>0.9756795422031472 0.01430615164520744 0.01001430615164521 0.9609071918830202 0.03073709340495375 0.008355714712026263 0.3101851851851852 0.6851851851851852 0.004629629629629629 0.9544922913343965 0.03423710792131844 0.01127060074428495 0.04036788466318667 0.9485707183693759 0.01106139696743723 0.01061263868789194 0.3058369512783405 0.6835504100337674 0.8021599056175696 0.1872674471367637 0.01057264724566657 0.01040862113354666 0.0404522837492053 0.949139095117248 0.0109799047027139 0.00694012844416822 0.9820799668531178</probabilities>
		</cpt>
		<cpt id="BP">
			<state id="LOW" />
			<state id="NORMAL" />
			<state id="HIGH" />
			<parents>CO TPR</parents>
			<probabilities>0.9805275968686272 0.008946779817117298 0.01052562331425564 0.9787828865258851 0.01008436922769707 0.01113274424641805 0.2925072903648158 0.6037017199309647 0.1037909897042195 0.9811350171499845 0.009198628001247275 0.009666354848768322 0.09262600745819803 0.8557079273427164 0.05166606519908578 0.0505704594511255 0.4081097748997842 0.5413197656490903 0.8980018550834002 0.09155937052932762 0.01043877438727224 0.04971036622312707 0.199932136018808 0.7503574977580648 0.009899498568876838 0.0876966449308111 0.9024038565003121</probabilities>
		</cpt>
		<cpt id="ERRLOWOUTPUT">
			<state id="TRUE" />
			<state id="FALSE" />
			<probabilities>0.05082449175508245 0.9491755082449176</probabilities>
		</cpt>
		<cpt id="HRBP">
			<state id="LOW" />
			<state id="NORMAL" />
			<state id="HIGH" />
			<parents>ERRLOWOUTPUT HR</parents>
			<probabilities>0.9624413145539907 0.004694835680751174 0.03286384976525823 0.3125228185469149 0.4034319094560058 0.2840452719970792 0.01154190034950825 0.9769161993009836 0.01154190034950825 0.4032098765432099 0.5846913580246914 0.01209876543209876 0.9794347097986358 0.009578074582363273 0.01098721561900094 0.009531946476114038 0.009622562535868857 0.9808454909880171</probabilities>
		</cpt>
		<cpt id="ERRCAUTER">
			<state id="TRUE" />
			<state id="FALSE" />
			<probabilities>0.1007539924600754 0.8992460075399247</probabilities>
		</cpt>
		<cpt id="HREKG">
			<state id="LOW" />
			<state id="NORMAL" />
			<state id="HIGH" />
			<parents>ERRCAUTER HR</parents>
			<probabilities>0.3358585858585859 0.2828282828282829 0.3813131313131313 0.317055123936367 0.3414724380318165 0.3414724380318165 0.009618533071381795 0.9801489849377866 0.0102324819908317 0.3268683734160848 0.3485906387380398 0.3245409878458753 0.9785092550595045 0.01129614030540616 0.01019460463508931 0.01022229507599559 0.0101266744984473 0.979651030425557</probabilities>
		</cpt>
		<cpt id="HRSAT">
			<state id="LOW" />
			<state id="NORMAL" />
			<state id="HIGH" />
			<parents>ERRCAUTER HR</parents>
			<probabilities>0.3207070707070707 0.3585858585858586 0.3207070707070707 0.328708842027377 0.340362560118387 0.3309285978542361 0.01072364112639162 0.9800261951538967 0.009250163719711855 0.3509180243082493 0.3198862167054564 0.3291957589862943 0.9805827339683362 0.009546642476079396 0.009870623555584353 0.01038621606607837 0.01038621606607837 0.9792275678678432</probabilities>
		</cpt>
		<cpt id="EXPCO2">
			<state id="ZERO" />
			<state id="LOW" />
			<state id="NORMAL" />
			<state id="HIGH" />
			<parents>ARTCO2 VENTLUNG</parents>
			<probabilities>0.9696815718157181 0.0130420054200542 0.006266937669376694 0.01100948509485095 0.009848205506391348 0.9705782940019666 0.009172197640117995 0.01040130285152409 0.02225130890052356 0.006544502617801047 0.9541884816753927 0.01701570680628272 0.00625 0.00625 0.00625 0.9812500000000001 0.01229141835518474 0.9655095351609058 0.01020560190703218 0.01199344457687723 0.9649706979222162 0.01025572722429409 0.009722962173681406 0.0150506126798082 0.005952380952380953 0.01162131519274376 0.9730725623582767 0.009353741496598639 0.01582278481012658 0.01582278481012658 0.003164556962025316 0.9651898734177216 0.01020871470372025 0.9698639318506134 0.009689810744194761 0.01023754270147167 0.01112397119341564 0.01215277777777778 0.9658564814814815 0.0108667695473251 0.9839449541284404 0.002293577981651376 0.002293577981651376 0.01146788990825688 0.01105476673427992 0.0114604462474645 0.009026369168356998 0.9684584178498986</probabilities>
		</cpt>
		<cpt id="MINVOL">
			<state id="ZERO" />
			<state id="LOW" />
			<state id="NORMAL" />
			<state id="HIGH" />
			<parents>INTUBATION VENTLUNG</parents>
			<probabilities>0.9711379624619065 0.009601691777505625 0.009487767366352425 0.009772578394235424 0.01018513535331791 0.008570582853452451 0.009700769603358269 0.9715435121898713 0.5029286474973377 0.474174653887114 0.01091586794462194 0.01198083067092652 0.008601429848078641 0.97062109025916 0.01172922252010724 0.009048257372654155 0.0115979381443299 0.9749427262313861 0.004725085910652922 0.008734249713631157 0.969234496124031 0.01187015503875969 0.007025193798449613 0.01187015503875969 0.4483240223463688 0.5377094972067039 0.001396648044692737 0.01256983240223464 0.009615384615384616 0.04807692307692308 0.9326923076923077 0.009615384615384616 0.01215975011155734 0.01394466755912539 0.96396697902722 0.009928603302097277 0.5838490099009901 0.3920173267326733 0.0116542904290429 0.01247937293729373 0.98828125 0.00390625 0.00390625 0.00390625 0.01640625 0.00703125 0.01640625 0.96015625</probabilities>
		</cpt>
		<cpt id="PRESS">
			<state id="ZERO" />
			<state id="LOW" />
			<state id="NORMAL" />
			<state id="HIGH" />
			<parents>INTUBATION KINKEDTUBE VENTTUBE</parents>
			<probabilities>0.9723001402524544 0.01157082748948107 0.01016830294530154 0.005960729312762973 0.04553072625698324 0.2552141527001862 0.2622905027932961 0.4369646182495344 0.9330357142857142 0.004464285714285714 0.004464285714285714 0.05803571428571428 0.2109375 0.7421875 0.04129464285714286 0.005580357142857142 0.01047762605662943 0.01041851392090796 0.01000472897085772 0.9690991310516048 0.009469813764183523 0.2923385853478047 0.3018662123828318 0.3963253885051801 0.01101083032490975 0.009566787003610107 0.01101083032490975 0.9684115523465704 0.01172178988326848 0.9039396887159533 0.07534046692607005 0.008998054474708172 0.01785714285714286 0.5178571428571428 0.375 0.08928571428571427 0.01262626262626263 0.09343434343434344 0.2752525252525252 0.6186868686868687 0.08333333333333333 0.75 0.08333333333333333 0.08333333333333333 0.2083333333333333 0.7083333333333333 0.04166666666666666 0.04166666666666666 0.9643501805054152 0.01128158844765343 0.01850180505415162 0.005866425992779783 0.008698760724499523 0.01155862726406101 0.08400857959961869 0.8957340324118207 0.9868421052631579 0.004385964912280702 0.004385964912280702 0.004385964912280702 0.02083333333333333 0.01442307692307692 0.4310897435897436 0.5336538461538461 0.02717391304347826 0.02717391304347826 0.04891304347826086 0.8967391304347826 0.9764150943396227 0.007861635220125786 0.007861635220125786 0.007861635220125786 0.125 0.125 0.625 0.125 0.9166666666666666 0.02777777777777778 0.02777777777777778 0.02777777777777778 0.09088645418326693 0.8398904382470119 0.05702191235059761 0.01220119521912351 0.01095360824742268 0.009521764032073311 0.009808132875143184 0.9697164948453608 0.4490740740740741 0.5231481481481481 0.02314814814814815 0.004629629629629629 0.0078397212543554 0.01480836236933798 0.0078397212543554 0.9695121951219512</probabilities>
		</cpt>
		<cpt id="PAP">
			<state id="LOW" />
			<state id="NORMAL" />
			<state id="HIGH" />
			<parents>PULMEMBOLUS</parents>
			<probabilities>0.008383635144198525 0.1945003353454058 0.7971160295103958 0.05039323421676363 0.9001730499892265 0.04943371579400992</probabilities>
		</cpt>
	</nodes>
	<extensions>
		<genie version="1.0" app="GeNIe 2.4.4601.0 ACADEMIC" name="Sub0" faultnameformat="nodestate">
			<node id="LVFAILURE">
				<name>LVFAILURE</name>
				<interior color="e5f6f7" />
				<outline color="0000bb" />
				<font color="000000" name="Arial" size="8" />
				<position>472 1458 548 1494</position>
				<barchart active="true" />
			</node>
			<node id="HISTORY">
				<name>HISTORY</name>
				<interior color="e5f6f7" />
				<outline color="0000bb" />
				<font color="000000" name="Arial" size="8" />
				<position>202 1596 278 1632</position>
				<barchart active="true" />
			</node>
			<node id="HYPOVOLEMIA">
				<name>HYPOVOLEMIA</name>
				<interior color="e5f6f7" />
				<outline color="0000bb" />
				<font color="000000" name="Arial" size="8" />
				<position>772 1440 848 1476</position>
				<barchart active="true" />
			</node>
			<node id="LVEDVOLUME">
				<name>LVEDVOLUME</name>
				<interior color="e5f6f7" />
				<outline color="0000bb" />
				<font color="000000" name="Arial" size="8" />
				<position>472 1602 548 1638</position>
				<barchart active="true" width="128" height="72" />
			</node>
			<node id="STROKEVOLUME">
				<name>STROKEVOLUME</name>
				<interior color="e5f6f7" />
				<outline color="0000bb" />
				<font color="000000" name="Arial" size="8" />
				<position>952 1614 1028 1650</position>
				<barchart active="true" width="128" height="72" />
			</node>
			<node id="CVP">
				<name>CVP</name>
				<interior color="e5f6f7" />
				<outline color="0000bb" />
				<font color="000000" name="Arial" size="8" />
				<position>262 1788 338 1824</position>
				<barchart active="true" width="128" height="72" />
			</node>
			<node id="PCWP">
				<name>PCWP</name>
				<interior color="e5f6f7" />
				<outline color="0000bb" />
				<font color="000000" name="Arial" size="8" />
				<position>472 1794 548 1830</position>
				<barchart active="true" width="128" height="72" />
			</node>
			<node id="INTUBATION">
				<name>INTUBATION</name>
				<interior color="e5f6f7" />
				<outline color="0000bb" />
				<font color="000000" name="Arial" size="8" />
				<position>970 678 1046 714</position>
				<barchart active="true" width="128" height="72" />
			</node>
			<node id="KINKEDTUBE">
				<name>KINKEDTUBE</name>
				<interior color="e5f6f7" />
				<outline color="0000bb" />
				<font color="000000" name="Arial" size="8" />
				<position>1264 654 1340 690</position>
				<barchart active="true" />
			</node>
			<node id="DISCONNECT">
				<name>DISCONNECT</name>
				<interior color="e5f6f7" />
				<outline color="0000bb" />
				<font color="000000" name="Arial" size="8" />
				<position>1342 486 1418 522</position>
				<barchart active="true" />
			</node>
			<node id="MINVOLSET">
				<name>MINVOLSET</name>
				<interior color="e5f6f7" />
				<outline color="0000bb" />
				<font color="000000" name="Arial" size="8" />
				<position>1672 300 1748 336</position>
				<barchart active="true" width="128" height="72" />
			</node>
			<node id="VENTMACH">
				<name>VENTMACH</name>
				<interior color="e5f6f7" />
				<outline color="0000bb" />
				<font color="000000" name="Arial" size="8" />
				<position>1606 474 1682 510</position>
				<barchart active="true" width="128" height="90" />
			</node>
			<node id="VENTTUBE">
				<name>VENTTUBE</name>
				<interior color="e5f6f7" />
				<outline color="0000bb" />
				<font color="000000" name="Arial" size="8" />
				<position>1534 636 1610 672</position>
				<barchart active="true" width="128" height="90" />
			</node>
			<node id="VENTLUNG">
				<name>VENTLUNG</name>
				<interior color="e5f6f7" />
				<outline color="0000bb" />
				<font color="000000" name="Arial" size="8" />
				<position>1276 822 1352 858</position>
				<barchart active="true" width="128" height="90" />
			</node>
			<node id="VENTALV">
				<name>VENTALV</name>
				<interior color="e5f6f7" />
				<outline color="0000bb" />
				<font color="000000" name="Arial" size="8" />
				<position>1210 978 1286 1014</position>
				<barchart active="true" width="128" height="90" />
			</node>
			<node id="ARTCO2">
				<name>ARTCO2</name>
				<interior color="e5f6f7" />
				<outline color="0000bb" />
				<font color="000000" name="Arial" size="8" />
				<position>1240 1116 1316 1152</position>
				<barchart active="true" width="128" height="72" />
			</node>
			<node id="INSUFFANESTH">
				<name>INSUFFANESTH</name>
				<interior color="e5f6f7" />
				<outline color="0000bb" />
				<font color="000000" name="Arial" size="8" />
				<position>1396 1374 1472 1410</position>
				<barchart active="true" />
			</node>
			<node id="FIO2">
				<name>FIO2</name>
				<interior color="e5f6f7" />
				<outline color="0000bb" />
				<font color="000000" name="Arial" size="8" />
				<position>754 1020 830 1056</position>
				<barchart active="true" />
			</node>
			<node id="PVSAT">
				<name>PVSAT</name>
				<interior color="e5f6f7" />
				<outline color="0000bb" />
				<font color="000000" name="Arial" size="8" />
				<position>946 1170 1022 1206</position>
				<barchart active="true" width="128" height="72" />
			</node>
			<node id="PULMEMBOLUS">
				<name>PULMEMBOLUS</name>
				<interior color="e5f6f7" />
				<outline color="0000bb" />
				<font color="000000" name="Arial" size="8" />
				<position>508 660 584 696</position>
				<barchart active="true" />
			</node>
			<node id="SHUNT">
				<name>SHUNT</name>
				<interior color="e5f6f7" />
				<outline color="0000bb" />
				<font color="000000" name="Arial" size="8" />
				<position>628 786 704 822</position>
				<barchart active="true" />
			</node>
			<node id="SAO2">
				<name>SAO2</name>
				<interior color="e5f6f7" />
				<outline color="0000bb" />
				<font color="000000" name="Arial" size="8" />
				<position>934 1314 1010 1350</position>
				<barchart active="true" width="128" height="72" />
			</node>
			<node id="ANAPHYLAXIS">
				<name>ANAPHYLAXIS</name>
				<interior color="e5f6f7" />
				<outline color="0000bb" />
				<font color="000000" name="Arial" size="8" />
				<position>70 1008 146 1044</position>
				<barchart active="true" />
			</node>
			<node id="TPR">
				<name>TPR</name>
				<interior color="e5f6f7" />
				<outline color="0000bb" />
				<font color="000000" name="Arial" size="8" />
				<position>64 1164 140 1200</position>
				<barchart active="true" width="128" height="72" />
			</node>
			<node id="CATECHOL">
				<name>CATECHOL</name>
				<interior color="e5f6f7" />
				<outline color="0000bb" />
				<font color="000000" name="Arial" size="8" />
				<position>1144 1464 1220 1500</position>
				<barchart active="true" />
			</node>
			<node id="HR">
				<name>HR</name>
				<interior color="e5f6f7" />
				<outline color="0000bb" />
				<font color="000000" name="Arial" size="8" />
				<position>1186 1620 1262 1656</position>
				<barchart active="true" width="128" height="72" />
			</node>
			<node id="CO">
				<name>CO</name>
				<interior color="e5f6f7" />
				<outline color="0000bb" />
				<font color="000000" name="Arial" size="8" />
				<position>946 1794 1022 1830</position>
				<barchart active="true" width="128" height="72" />
			</node>
			<node id="BP">
				<name>BP</name>
				<interior color="e5f6f7" />
				<outline color="0000bb" />
				<font color="000000" name="Arial" size="8" />
				<position>322 2094 398 2130</position>
				<barchart active="true" width="128" height="72" />
			</node>
			<node id="ERRLOWOUTPUT">
				<name>ERRLOWOUTPUT</name>
				<interior color="e5f6f7" />
				<outline color="0000bb" />
				<font color="000000" name="Arial" size="8" />
				<position>694 1650 770 1686</position>
				<barchart active="true" />
			</node>
			<node id="HRBP">
				<name>HRBP</name>
				<interior color="e5f6f7" />
				<outline color="0000bb" />
				<font color="000000" name="Arial" size="8" />
				<position>688 1794 764 1830</position>
				<barchart active="true" width="128" height="72" />
			</node>
			<node id="ERRCAUTER">
				<name>ERRCAUTER</name>
				<interior color="e5f6f7" />
				<outline color="0000bb" />
				<font color="000000" name="Arial" size="8" />
				<position>1426 1626 1502 1662</position>
				<barchart active="true" />
			</node>
			<node id="HREKG">
				<name>HREKG</name>
				<interior color="e5f6f7" />
				<outline color="0000bb" />
				<font color="000000" name="Arial" size="8" />
				<position>1450 1806 1526 1842</position>
				<barchart active="true" width="128" height="72" />
			</node>
			<node id="HRSAT">
				<name>HRSAT</name>
				<interior color="e5f6f7" />
				<outline color="0000bb" />
				<font color="000000" name="Arial" size="8" />
				<position>1192 1800 1268 1836</position>
				<barchart active="true" width="128" height="72" />
			</node>
			<node id="EXPCO2">
				<name>EXPCO2</name>
				<interior color="e5f6f7" />
				<outline color="0000bb" />
				<font color="000000" name="Arial" size="8" />
				<position>1522 1254 1598 1290</position>
				<barchart active="true" width="128" height="90" />
			</node>
			<node id="MINVOL">
				<name>MINVOL</name>
				<interior color="e5f6f7" />
				<outline color="0000bb" />
				<font color="000000" name="Arial" size="8" />
				<position>922 912 998 948</position>
				<barchart active="true" width="128" height="90" />
			</node>
			<node id="PRESS">
				<name>PRESS</name>
				<interior color="e5f6f7" />
				<outline color="0000bb" />
				<font color="000000" name="Arial" size="8" />
				<position>1588 822 1664 858</position>
				<barchart active="true" width="128" height="90" />
			</node>
			<node id="PAP">
				<name>PAP</name>
				<interior color="e5f6f7" />
				<outline color="0000bb" />
				<font color="000000" name="Arial" size="8" />
				<position>388 786 464 822</position>
				<barchart active="true" width="128" height="72" />
			</node>
		</genie>
	</extensions>
</smile>
