<?xml version="1.0" encoding="ISO-8859-1"?>
<!-- This network was created in GeNIe Academic, which can be used for educational and research purposes only -->
<smile version="1.0" id="V1" numsamples="1000" discsamples="10000">
	<nodes>
		<cpt id="jordtype">
			<state id="Jb_1_" />
			<state id="JB_2" />
			<state id="JB_3" />
			<state id="JB_4" />
			<state id="JB_5" />
			<state id="JB_6" />
			<state id="Jb_7" />
			<state id="JB_8" />
			<state id="JB_9" />
			<probabilities>0.1113999711139997 0.1108000311080003 0.1174993611749936 0.1164994611649946 0.1103000811030008 0.1077003410770034 0.1083002810830028 0.1078003310780033 0.1097001410970014</probabilities>
		</cpt>
		<cpt id="komm">
			<state id="state0" />
			<state id="state1" />
			<state id="state2" />
			<state id="state3" />
			<state id="state4" />
			<probabilities>0.2034996500349965 0.1984001599840016 0.1999000099990001 0.194000599940006 0.2041995800419958</probabilities>
		</cpt>
		<cpt id="nedbarea">
			<state id="x1___375_" />
			<state id="x2__375_500_" />
			<state id="x3___500_" />
			<parents>komm</parents>
			<probabilities>0.3321872953503602 0.3321872953503602 0.3356254092992796 0.3366918555835433 0.343744752308984 0.3195633921074727 0.3176666666666667 0.3461666666666667 0.3361666666666667 0.3515370084149064 0.3237162974411816 0.3247466941439121 0.3359438733888074 0.3349649208680046 0.3290912057431882</probabilities>
		</cpt>
		<cpt id="nmin">
			<state id="x0_15" />
			<state id="x15_30" />
			<state id="x30_45" />
			<state id="x45_60" />
			<state id="x60_75" />
			<state id="x_75" />
			<parents>jordtype nedbarea</parents>
			<probabilities>0.5177392739273927 0.4806105610561056 0.0004125412541254125 0.0004125412541254125 0.0004125412541254125 0.0004125412541254125 0.5102135561745589 0.4879294336118848 0.0004642525533890436 0.0004642525533890436 0.0004642525533890436 0.0004642525533890436 0.4722222222222222 0.525894538606403 0.0004708097928436911 0.0004708097928436911 0.0004708097928436911 0.0004708097928436911 0.003401360544217687 0.2103984450923227 0.7176870748299319 0.06754130223517979 0.0004859086491739553 0.0004859086491739553 0.002791068580542265 0.5051834130781498 0.4884370015948963 0.002791068580542265 0.0003987240829346092 0.0003987240829346092 0.01476190476190476 0.8176190476190476 0.1661904761904762 0.0004761904761904761 0.0004761904761904761 0.0004761904761904761 0.5324623911322248 0.4635787806809185 0.000395882818685669 0.000395882818685669 0.002771179730799684 0.000395882818685669 0.5604444444444444 0.4377777777777777 0.0004444444444444444 0.0004444444444444444 0.0004444444444444444 0.0004444444444444444 0.5004363001745201 0.4978184991273997 0.0004363001745200698 0.0004363001745200698 0.0004363001745200698 0.0004363001745200698 0.00307017543859649 0.2188596491228069 0.7057017543859647 0.07149122807017541 0.00043859649122807 0.00043859649122807 0.005527210884353741 0.51828231292517 0.4647108843537414 0.01062925170068027 0.0004251700680272108 0.0004251700680272108 0.02314814814814814 0.8085016835016834 0.1670875420875421 0.0004208754208754207 0.0004208754208754207 0.0004208754208754207 0.0004329004329004329 0.03419913419913419 0.4757575757575757 0.4393939393939394 0.04978354978354978 0.0004329004329004329 0.0004432624113475177 0.08023049645390071 0.638741134751773 0.2717198581560284 0.008421985815602837 0.0004432624113475177 0.006280193236714976 0.2294685990338164 0.6990338164251207 0.0642512077294686 0.0004830917874396135 0.0004830917874396135 0.0004816955684007707 0.04961464354527938 0.4166666666666666 0.4889210019267822 0.04383429672447013 0.0004816955684007707 0.0004468275245755138 0.1264521894548704 0.6063449508489723 0.2631814119749777 0.003127792672028597 0.0004468275245755138 0.0004616805170821791 0.2303785780240074 0.695752539242844 0.07248384118190213 0.0004616805170821791 0.0004616805170821791 0.0004642525533890436 0.02831940575673166 0.4433611884865367 0.4823584029712163 0.04503249767873724 0.0004642525533890436 0.0004734848484848485 0.07433712121212122 0.6482007575757576 0.2703598484848485 0.00615530303030303 0.0004734848484848485 0.003111111111111111 0.2537777777777778 0.6671111111111111 0.07511111111111111 0.0004444444444444444 0.0004444444444444444 0.0004591368227731864 0.05555555555555556 0.391643709825528 0.507346189164371 0.04453627180899909 0.0004591368227731864 0.003161698283649503 0.08446251129177959 0.6508581752484192 0.2551942186088528 0.005871725383920505 0.0004516711833785004 0.0004775549188156638 0.1924546322827125 0.7254059216809933 0.08070678127984718 0.0004775549188156638 0.0004775549188156638 0.0004694835680751174 0.03708920187793427 0.5075117370892018 0.4201877934272301 0.03427230046948357 0.0004694835680751174 0.0004668534080298786 0.1041083099906629 0.6531279178338002 0.2413632119514472 0.0004668534080298786 0.0004668534080298786 0.00558419243986254 0.227233676975945 0.6911512027491407 0.07517182130584191 0.0004295532646048108 0.0004295532646048108</probabilities>
		</cpt>
		<cpt id="aar_mod">
			<state id="x_25" />
			<state id="x_20" />
			<state id="x_15" />
			<state id="x_10" />
			<state id="x_5" />
			<state id="x0" />
			<state id="x5" />
			<state id="x10" />
			<state id="x15" />
			<state id="x20" />
			<state id="x25" />
			<parents>komm jordtype</parents>
			<probabilities>0.07314049586776859 0.07314049586776859 0.1004132231404959 0.07768595041322313 0.1004132231404959 0.08223140495867767 0.09132231404958677 0.118595041322314 0.1049586776859504 0.0640495867768595 0.1140495867768595 0.04955290611028317 0.07004470938897168 0.1233233979135619 0.1028315946348733 0.07004470938897168 0.1028315946348733 0.106929955290611 0.07824143070044709 0.07414307004470939 0.106929955290611 0.1151266766020864 0.1076863051111978 0.11197815060476 0.06047600468201327 0.1033944596176356 0.08193523214982441 0.07764338665626219 0.08622707764338665 0.11197815060476 0.1205618415918845 0.08193523214982441 0.05618415918845104 0.08969155844155843 0.09862012987012986 0.03612012987012987 0.08522727272727272 0.04951298701298702 0.1164772727272727 0.0762987012987013 0.1030844155844156 0.1477272727272727 0.09862012987012986 0.09862012987012986 0.07733443027560676 0.09543397778691896 0.09543397778691896 0.08185931715343481 0.07280954339777869 0.09543397778691896 0.1135335252982312 0.1090086384204031 0.07280954339777869 0.09543397778691896 0.09090909090909091 0.1144338118022328 0.1100478468899521 0.09688995215311004 0.1056618819776714 0.05741626794258373 0.06618819776714513 0.09250398724082934 0.08811802232854864 0.09250398724082934 0.1056618819776714 0.07057416267942583 0.109504132231405 0.1004132231404959 0.1231404958677686 0.07314049586776859 0.09132231404958677 0.07314049586776859 0.109504132231405 0.1231404958677686 0.07314049586776859 0.0640495867768595 0.05950413223140496 0.07248157248157247 0.1265356265356265 0.08149058149058148 0.07248157248157247 0.08149058149058148 0.0904995904995905 0.0995085995085995 0.08599508599508598 0.1085176085176085 0.06347256347256347 0.1175266175266175 0.0909090909090909 0.1081504702194357 0.0909090909090909 0.1210815047021944 0.0865987460815047 0.06935736677115988 0.07366771159874608 0.07797805642633228 0.0909090909090909 0.0865987460815047 0.1038401253918495 0.08861726508785331 0.1222307104660046 0.1348357524828113 0.05920550038197097 0.09281894576012223 0.05500381970970206 0.0844155844155844 0.05920550038197097 0.0802139037433155 0.1180290297937357 0.1054239877769289 0.05691699604743083 0.1351778656126482 0.091699604743083 0.1221343873517787 0.07865612648221343 0.1177865612648221 0.05691699604743083 0.05691699604743083 0.1047430830039526 0.1047430830039526 0.07430830039525692 0.07398661944116487 0.1475796930342385 0.1172766627312082 0.08264462809917353 0.07398661944116487 0.08697363242817786 0.06965761511216055 0.08697363242817786 0.09563164108618652 0.09996064541519084 0.06532861078315623 0.04330862270776435 0.1162699960983223 0.06047600468201327 0.09051892313694888 0.1076863051111978 0.08622707764338665 0.11197815060476 0.09910261412407334 0.08193523214982441 0.11197815060476 0.09051892313694888 0.0743083003952569 0.0743083003952569 0.08300395256916994 0.0743083003952569 0.08300395256916994 0.1090909090909091 0.06996047430830038 0.1395256916996047 0.0743083003952569 0.1134387351778656 0.1047430830039525 0.109504132231405 0.07314049586776859 0.118595041322314 0.09132231404958677 0.07768595041322313 0.08677685950413222 0.09132231404958677 0.08223140495867767 0.08677685950413222 0.09586776859504131 0.08677685950413222 0.08138528138528139 0.08614718614718615 0.09090909090909091 0.1051948051948052 0.09567099567099567 0.08614718614718615 0.05281385281385282 0.09567099567099567 0.0670995670995671 0.10995670995671 0.129004329004329 0.1229946524064171 0.09848484848484848 0.09848484848484848 0.09848484848484848 0.06417112299465241 0.1033868092691622 0.06417112299465241 0.09848484848484848 0.1033868092691622 0.05926916221033868 0.08868092691622102 0.08675588371019842 0.09690816797415781 0.07660359944623904 0.08675588371019842 0.06645131518227965 0.08167974157821872 0.1070604522381172 0.1121365943700969 0.08167974157821872 0.1121365943700969 0.09183202584217812 0.09332260659694286 0.08447304907481896 0.06677393403057119 0.1154465004022526 0.1464199517296862 0.1065969428801287 0.08004827031375703 0.0977473853580048 0.07119871279163313 0.08004827031375703 0.0579243765084473 0.145966709346991 0.07084933845497227 0.0802390098164746 0.06145966709346991 0.08493384549722578 0.08493384549722578 0.09432351685872813 0.1084080239009816 0.0990183525394793 0.08962868117797695 0.0802390098164746 0.1232057416267942 0.07496012759170653 0.07057416267942583 0.07496012759170653 0.09250398724082934 0.07496012759170653 0.1232057416267942 0.07496012759170653 0.08811802232854864 0.1188197767145135 0.08373205741626794 0.06676725763862693 0.09166352319879291 0.0958129007921539 0.07506601282534892 0.1041116559788759 0.1041116559788759 0.08751414560543191 0.0958129007921539 0.09166352319879291 0.08751414560543191 0.0999622783855149 0.1013344453711426 0.07839866555462886 0.08757297748123437 0.1196830692243536 0.07381150959132611 0.06463719766472061 0.07839866555462886 0.07381150959132611 0.1150959132610509 0.1013344453711426 0.1059216013344454 0.09521757862990091 0.1094355881085739 0.08573890564411892 0.08099956915122793 0.1141749246014649 0.09047824213700992 0.04308487720809996 0.08099956915122793 0.1236535975872469 0.07152089616544594 0.1046962516156829 0.09013209013209014 0.1072261072261072 0.08585858585858586 0.09013209013209014 0.09867909867909869 0.08158508158508158 0.09867909867909869 0.09013209013209014 0.08585858585858586 0.08585858585858586 0.08585858585858586 0.087173100871731 0.0826068908260689 0.0826068908260689 0.0917393109173931 0.0917393109173931 0.1237027812370278 0.05520963055209631 0.0780406807804068 0.0917393109173931 0.1054379410543794 0.1100041511000415 0.08757297748123437 0.08757297748123437 0.09216013344453712 0.08757297748123437 0.1380316930775646 0.08757297748123437 0.06922435362802336 0.09674728940783987 0.09216013344453712 0.07381150959132611 0.08757297748123437 0.07220530665506743 0.05785123966942149 0.1200521966072205 0.07220530665506743 0.08655937364071335 0.1391909525880818 0.06742061765985211 0.07220530665506743 0.1104828186167899 0.09612875163114397 0.1056981296215746 0.1351860574658502 0.08337258596325954 0.09891662741403674 0.05746585021196421 0.08337258596325954 0.1040979745642958 0.06782854451248234 0.1144606688648139 0.0885539331135186 0.07300989166274141 0.09373528026377767 0.06012314378848244 0.1119159724737414 0.1278522274538211 0.1278522274538211 0.04817095255342268 0.1238681637088011 0.08402752625860195 0.07207533502354219 0.06410720753350235 0.08402752625860195 0.09597971749366171 0.1506615450277422 0.1037131882202305 0.07084933845497225 0.0614596670934699 0.09901835253947928 0.08023900981647458 0.0614596670934699 0.1318822023047375 0.1037131882202305 0.04737516005121638 0.08962868117797694 0.1059216013344454 0.08757297748123437 0.09674728940783987 0.1288573811509591 0.08298582151793162 0.1059216013344454 0.06463719766472061 0.06463719766472061 0.09216013344453712 0.09216013344453712 0.07839866555462886 0.116946160635481 0.087819947043248 0.07811120917917033 0.087819947043248 0.08296557811120917 0.1023830538393645 0.07811120917917033 0.07325684024713151 0.09752868490732568 0.08296557811120917 0.1120917917034422 0.1412180052956752 0.06840247131509267 0.07811120917917033 0.1023830538393645 0.1218005295675198 0.1023830538393645 0.1120917917034422 0.02956751985878199 0.04898499558693734 0.1072374227714033 0.087819947043248 0.09415584415584415 0.09415584415584415 0.08522727272727272 0.1030844155844156 0.08076298701298701 0.1030844155844156 0.09862012987012986 0.08522727272727272 0.0762987012987013 0.09415584415584415 0.08522727272727272 0.06589916633584755 0.1139341008336641 0.08773322747121873 0.05716554188169909 0.07899960301707026 0.1008336641524414 0.1052004763795157 0.1095672886065899 0.09646685192536721 0.09646685192536721 0.08773322747121873 0.1110217216411907 0.08447304907481898 0.09774738535800483 0.08889782783588093 0.09332260659694287 0.09332260659694287 0.09774738535800483 0.09774738535800483 0.06677393403057121 0.08447304907481898 0.08447304907481898 0.1076863051111978 0.1033944596176356 0.1205618415918845 0.08622707764338665 0.1033944596176356 0.06905969566913772 0.08193523214982441 0.0647678501755755 0.09051892313694888 0.05189231369488881 0.1205618415918845 0.08055235903337168 0.1058688147295742 0.08055235903337168 0.09742999616417336 0.1311852704257767 0.05523590333716916 0.05945531261986958 0.09321058688147295 0.09742999616417336 0.1016494054468738 0.09742999616417336 0.08143208143208143 0.08915408915408915 0.06598806598806599 0.0852930852930853 0.09687609687609687 0.1045981045981046 0.12004212004212 0.06598806598806599 0.08915408915408915 0.08915408915408915 0.1123201123201123 0.1090086384204031 0.05923488276429454 0.0637597696421226 0.1406828465651995 0.08638420403126286 0.09090909090909091 0.08638420403126286 0.08638420403126286 0.08638420403126286 0.1180584121760592 0.07280954339777869 0.07875994972769165 0.1156263091746963 0.1202346041055718 0.09258483452031839 0.09258483452031839 0.07875994972769165 0.09258483452031839 0.07415165479681608 0.1110180142438207 0.06493506493506494 0.07875994972769165 0.07839866555462886 0.1013344453711426 0.0554628857381151 0.1334445371142619 0.08757297748123437 0.1013344453711426 0.1013344453711426 0.09216013344453712 0.07839866555462886 0.1013344453711426 0.06922435362802336 0.06117247238742566 0.07051826677994902 0.07986406117247238 0.1312659303313509 0.1219201359388275 0.08920985556499574 0.1125743415463041 0.1219201359388275 0.05649957519116398 0.07986406117247238 0.0751911639762107 0.1065969428801287 0.06234915526950925 0.07119871279163315 0.09774738535800483 0.1154465004022526 0.06677393403057121 0.09774738535800483 0.1021721641190668 0.1110217216411907 0.08004827031375704 0.08889782783588093</probabilities>
		</cpt>
		<cpt id="forfrugt">
			<state id="Cereals" />
			<state id="Cer_rotation" />
			<state id="Beets" />
			<state id="Clovergrass" />
			<state id="Other" />
			<probabilities>0.1919008099190081 0.2043995600439956 0.1993000699930007 0.1995000499950005 0.2048995100489951</probabilities>
		</cpt>
		<cpt id="potnmin">
			<state id="x0_15" />
			<state id="x15_30" />
			<state id="x30_45" />
			<state id="x45_60" />
			<state id="x60_75" />
			<state id="x75_90" />
			<state id="x90_105" />
			<state id="x_105" />
			<parents>jordtype forfrugt</parents>
			<probabilities>0.9962121212121212 0.0005411255411255411 0.0005411255411255411 0.0005411255411255411 0.0005411255411255411 0.0005411255411255411 0.0005411255411255411 0.0005411255411255411 0.3826219512195123 0.4639227642276423 0.146849593495935 0.004573170731707318 0.0005081300813008131 0.0005081300813008131 0.0005081300813008131 0.0005081300813008131 0.01467136150234742 0.8221830985915494 0.1602112676056338 0.0005868544600938967 0.0005868544600938967 0.0005868544600938967 0.0005868544600938967 0.0005868544600938967 0.125 0.2924641148325359 0.3450956937799043 0.187200956937799 0.04366028708133971 0.005382775119617224 0.0005980861244019139 0.0005980861244019139 0.009659090909090909 0.2960227272727273 0.6323863636363636 0.0596590909090909 0.0005681818181818182 0.0005681818181818182 0.0005681818181818182 0.0005681818181818182 0.3480046948356808 0.6437793427230047 0.00528169014084507 0.0005868544600938967 0.0005868544600938967 0.0005868544600938967 0.0005868544600938967 0.0005868544600938967 0.1516666666666667 0.2094444444444444 0.3338888888888889 0.1961111111111111 0.08500000000000001 0.02277777777777778 0.0005555555555555556 0.0005555555555555556 0.0005580357142857143 0.005022321428571428 0.1612723214285714 0.5094866071428571 0.2996651785714285 0.02287946428571428 0.0005580357142857143 0.0005580357142857143 0.07428278688524591 0.09887295081967214 0.1480532786885246 0.1193647540983607 0.1398565573770492 0.1193647540983607 0.1029713114754098 0.1972336065573771 0.0006038647342995169 0.02475845410628019 0.053743961352657 0.1841787439613526 0.304951690821256 0.2421497584541063 0.160024154589372 0.02958937198067633 0.9959862385321101 0.0005733944954128441 0.0005733944954128441 0.0005733944954128441 0.0005733944954128441 0.0005733944954128441 0.0005733944954128441 0.0005733944954128441 0.3914609053497943 0.5149176954732511 0.09104938271604938 0.00051440329218107 0.00051440329218107 0.00051440329218107 0.00051440329218107 0.00051440329218107 0.02896341463414634 0.8216463414634148 0.146849593495935 0.0005081300813008131 0.0005081300813008131 0.0005081300813008131 0.0005081300813008131 0.0005081300813008131 0.1244469026548673 0.2881637168141593 0.3722345132743363 0.1642699115044248 0.04922566371681416 0.0005530973451327434 0.0005530973451327434 0.0005530973451327434 0.004554655870445344 0.2353238866396761 0.7130566801619433 0.04504048582995952 0.0005060728744939271 0.0005060728744939271 0.0005060728744939271 0.0005060728744939271 0.2584841628959276 0.7290723981900453 0.009615384615384616 0.0005656108597285068 0.0005656108597285068 0.0005656108597285068 0.0005656108597285068 0.0005656108597285068 0.1235119047619048 0.1870039682539683 0.3100198412698413 0.2425595238095238 0.1076388888888889 0.02827380952380952 0.000496031746031746 0.000496031746031746 0.000496031746031746 0.000496031746031746 0.1870039682539683 0.5758928571428571 0.2108134920634921 0.02430555555555555 0.000496031746031746 0.000496031746031746 0.095625 0.050625 0.080625 0.145625 0.150625 0.165625 0.155625 0.155625 0.0005102040816326531 0.03316326530612245 0.09438775510204082 0.1923469387755102 0.2862244897959184 0.2127551020408164 0.114795918367347 0.06581632653061226 0.2829861111111111 0.458912037037037 0.2459490740740741 0.009837962962962962 0.0005787037037037037 0.0005787037037037037 0.0005787037037037037 0.0005787037037037037 0.04821428571428572 0.1196428571428571 0.3053571428571429 0.3101190476190476 0.1577380952380953 0.05297619047619048 0.005357142857142857 0.0005952380952380953 0.08238636363636363 0.07784090909090909 0.1005681818181818 0.1551136363636363 0.1596590909090909 0.1823863636363636 0.1278409090909091 0.1142045454545454 0.1147260273972603 0.05993150684931507 0.08732876712328766 0.06449771689497716 0.101027397260274 0.09189497716894976 0.09646118721461186 0.3841324200913242 0.04166666666666667 0.05401234567901235 0.05812757201646091 0.08281893004115227 0.1157407407407408 0.1363168724279835 0.1363168724279835 0.3750000000000001 0.2292600896860987 0.5521300448430493 0.2068385650224215 0.00952914798206278 0.0005605381165919282 0.0005605381165919282 0.0005605381165919282 0.0005605381165919282 0.04304245283018868 0.1468160377358491 0.316627358490566 0.3213443396226415 0.1373820754716981 0.03360849056603774 0.0005896226415094339 0.0005896226415094339 0.06186224489795918 0.06696428571428571 0.1026785714285714 0.1690051020408163 0.204719387755102 0.1792091836734694 0.08737244897959183 0.1281887755102041 0.1505681818181818 0.08693181818181818 0.07784090909090909 0.1096590909090909 0.07329545454545454 0.07784090909090909 0.1005681818181818 0.3232954545454546 0.09145021645021645 0.05248917748917749 0.08279220779220779 0.0698051948051948 0.1347402597402597 0.1520562770562771 0.07846320346320346 0.3382034632034632 0.2716121495327102 0.5146028037383177 0.1781542056074766 0.03329439252336448 0.0005841121495327102 0.0005841121495327102 0.0005841121495327102 0.0005841121495327102 0.0411036036036036 0.1627252252252252 0.2798423423423423 0.3564189189189189 0.1221846846846847 0.0365990990990991 0.0005630630630630631 0.0005630630630630631 0.04185779816513761 0.08314220183486239 0.1060779816513761 0.1702981651376147 0.1611238532110092 0.1748853211009175 0.1244266055045872 0.1381880733944954 0.1082974137931035 0.0177801724137931 0.0738146551724138 0.09536637931034482 0.1470905172413793 0.0738146551724138 0.1082974137931035 0.3755387931034483 0.04517326732673267 0.03527227722772278 0.04517326732673267 0.06497524752475248 0.1590346534653465 0.1689356435643564 0.08477722772277228 0.3966584158415842 0.3036616161616162 0.5157828282828283 0.1773989898989899 0.0006313131313131314 0.0006313131313131314 0.0006313131313131314 0.0006313131313131314 0.0006313131313131314 0.03611111111111111 0.1561111111111111 0.3027777777777778 0.3205555555555555 0.1338888888888889 0.045 0.005 0.0005555555555555556 0.08391203703703703 0.07465277777777778 0.09317129629629629 0.1533564814814815 0.1903935185185185 0.171875 0.07465277777777778 0.1579861111111111 0.09780092592592592 0.03761574074074074 0.09317129629629629 0.09317129629629629 0.06076388888888889 0.1302083333333333 0.08854166666666666 0.3987268518518518 0.06195175438596491 0.03125 0.05317982456140351 0.1233552631578947 0.1759868421052631 0.1014254385964912 0.09703947368421052 0.3558114035087719 0.2944587628865979 0.4439432989690721 0.2274484536082474 0.03157216494845361 0.0006443298969072165 0.0006443298969072165 0.0006443298969072165 0.0006443298969072165 0.02809633027522936 0.1519495412844037 0.2849770642201835 0.2987385321100918 0.1932339449541285 0.03268348623853211 0.005160550458715597 0.005160550458715597 0.06970046082949309 0.1019585253456221 0.1664746543778802 0.1434331797235023 0.1434331797235023 0.1526497695852534 0.125 0.09735023041474654 0.1013655462184874 0.06775210084033613 0.08876050420168066 0.06775210084033613 0.08035714285714285 0.1139705882352941 0.1097689075630252 0.3702731092436974 0.06010638297872341 0.03457446808510638 0.07287234042553192 0.1026595744680851 0.1154255319148936 0.123936170212766 0.1196808510638298 0.3707446808510638</probabilities>
		</cpt>
		<cpt id="pesticid">
			<state id="x_" />
			<state id="x_2" />
			<probabilities>0.00024997500249975 0.9997500249975003</probabilities>
		</cpt>
		<cpt id="exptgens">
			<state id="x_30" />
			<state id="x30_40" />
			<state id="x40_50" />
			<state id="x50_60" />
			<state id="x60_70" />
			<state id="x_70" />
			<parents>jordtype forfrugt pesticid</parents>
			<probabilities>0.1666666666666667 0.1666666666666667 0.1666666666666667 0.1666666666666667 0.1666666666666667 0.1666666666666667 0.1479076479076479 0.6673881673881675 0.1825396825396826 0.0007215007215007216 0.0007215007215007216 0.0007215007215007216 0.1666666666666667 0.1666666666666667 0.1666666666666667 0.1666666666666667 0.1666666666666667 0.1666666666666667 0.06978319783197835 0.6998644986449867 0.2079945799457995 0.02100271002710028 0.0006775067750677509 0.0006775067750677509 0.1666666666666667 0.1666666666666667 0.1666666666666667 0.1666666666666667 0.1666666666666667 0.1666666666666667 0.01486697965571205 0.44679186228482 0.5125195618153365 0.0242566510172144 0.000782472613458529 0.000782472613458529 0.1666666666666667 0.1666666666666667 0.1666666666666667 0.1666666666666667 0.1666666666666667 0.1666666666666667 0.01036682615629984 0.5127591706539075 0.4505582137161084 0.02472089314194578 0.0007974481658692184 0.0007974481658692184 0.1666666666666667 0.1666666666666667 0.1666666666666667 0.1666666666666667 0.1666666666666667 0.1666666666666667 0.03712121212121212 0.5598484848484848 0.4007575757575758 0.0007575757575757575 0.0007575757575757575 0.0007575757575757575 0.1666666666666667 0.1666666666666667 0.1666666666666667 0.1666666666666667 0.1666666666666667 0.1666666666666667 0.08059467918622851 0.6111111111111112 0.2965571205007825 0.01017214397496088 0.0007824726134585291 0.0007824726134585291 0.1666666666666667 0.1666666666666667 0.1666666666666667 0.1666666666666667 0.1666666666666667 0.1666666666666667 0.01407407407407408 0.6007407407407408 0.3651851851851853 0.01851851851851852 0.0007407407407407408 0.0007407407407407408 0.1666666666666667 0.1666666666666667 0.1666666666666667 0.1666666666666667 0.1666666666666667 0.1666666666666667 0.0007440476190476191 0.3444940476190477 0.6034226190476191 0.04985119047619048 0.0007440476190476191 0.0007440476190476191 0.1666666666666667 0.1666666666666667 0.1666666666666667 0.1666666666666667 0.1666666666666667 0.1666666666666667 0.0006830601092896175 0.3244535519125684 0.5949453551912568 0.07855191256830601 0.0006830601092896175 0.0006830601092896175 0.1666666666666667 0.1666666666666667 0.1666666666666667 0.1666666666666667 0.1666666666666667 0.1666666666666667 0.02012882447665056 0.4259259259259259 0.5225442834138486 0.02979066022544283 0.0008051529790660224 0.0008051529790660224 0.1666666666666667 0.1666666666666667 0.1666666666666667 0.1666666666666667 0.1666666666666667 0.1666666666666667 0.1200305810397554 0.6796636085626913 0.1934250764525994 0.005351681957186546 0.0007645259938837922 0.0007645259938837922 0.08333333333333333 0.08333333333333333 0.5833333333333334 0.08333333333333333 0.08333333333333333 0.08333333333333333 0.04201101928374656 0.6039944903581267 0.34366391184573 0.008953168044077135 0.0006887052341597796 0.0006887052341597796 0.1666666666666667 0.1666666666666667 0.1666666666666667 0.1666666666666667 0.1666666666666667 0.1666666666666667 0.01287262872628726 0.4275067750677508 0.5250677506775068 0.03319783197831978 0.0006775067750677507 0.0006775067750677507 0.1666666666666667 0.1666666666666667 0.1666666666666667 0.1666666666666667 0.1666666666666667 0.1666666666666667 0.03171091445427729 0.3989675516224189 0.5272861356932154 0.04056047197640118 0.0007374631268436578 0.0007374631268436578 0.1666666666666667 0.1666666666666667 0.1666666666666667 0.1666666666666667 0.1666666666666667 0.1666666666666667 0.06140350877192982 0.5188933873144399 0.4095816464237517 0.008771929824561403 0.0006747638326585695 0.0006747638326585695 0.1666666666666667 0.1666666666666667 0.1666666666666667 0.1666666666666667 0.1666666666666667 0.1666666666666667 0.01432880844645551 0.4351432880844646 0.5301659125188538 0.01885369532428356 0.0007541478129713424 0.0007541478129713424 0.1666666666666667 0.1666666666666667 0.1666666666666667 0.1666666666666667 0.1666666666666667 0.1666666666666667 0.008597883597883599 0.3816137566137567 0.5482804232804234 0.0601851851851852 0.0006613756613756614 0.0006613756613756614 0.1666666666666667 0.1666666666666667 0.1666666666666667 0.1666666666666667 0.1666666666666667 0.1666666666666667 0.0006613756613756614 0.21494708994709 0.6316137566137566 0.1435185185185185 0.008597883597883599 0.0006613756613756614 0.1666666666666667 0.1666666666666667 0.1666666666666667 0.1666666666666667 0.1666666666666667 0.1666666666666667 0.0008333333333333336 0.1258333333333334 0.6908333333333335 0.1758333333333334 0.005833333333333336 0.0008333333333333336 0.1666666666666667 0.1666666666666667 0.1666666666666667 0.1666666666666667 0.1666666666666667 0.1666666666666667 0.004761904761904762 0.2863945578231293 0.6170068027210884 0.08639455782312927 0.004761904761904762 0.0006802721088435375 0.1666666666666667 0.1666666666666667 0.1666666666666667 0.1666666666666667 0.1666666666666667 0.1666666666666667 0.005401234567901237 0.1813271604938272 0.6350308641975311 0.1766975308641976 0.0007716049382716051 0.0007716049382716051 0.1666666666666667 0.1666666666666667 0.1666666666666667 0.1666666666666667 0.1666666666666667 0.1666666666666667 0.0007936507936507939 0.06746031746031747 0.7150793650793652 0.2150793650793651 0.0007936507936507939 0.0007936507936507939 0.1666666666666667 0.1666666666666667 0.1666666666666667 0.1666666666666667 0.1666666666666667 0.1666666666666667 0.0007575757575757575 0.02803030303030303 0.5598484848484848 0.3916666666666667 0.01893939393939394 0.0007575757575757575 0.1666666666666667 0.1666666666666667 0.1666666666666667 0.1666666666666667 0.1666666666666667 0.1666666666666667 0.00076103500761035 0.02815829528158295 0.4756468797564688 0.4710806697108067 0.02359208523592085 0.00076103500761035 0.1666666666666667 0.1666666666666667 0.1666666666666667 0.1666666666666667 0.1666666666666667 0.1666666666666667 0.0006858710562414267 0.03360768175582991 0.6755829903978052 0.2887517146776407 0.0006858710562414267 0.0006858710562414267 0.1666666666666667 0.1666666666666667 0.1666666666666667 0.1666666666666667 0.1666666666666667 0.1666666666666667 0.0007473841554559045 0.1666666666666667 0.6689088191330345 0.1621823617339312 0.0007473841554559045 0.0007473841554559045 0.1666666666666667 0.1666666666666667 0.1666666666666667 0.1666666666666667 0.1666666666666667 0.1666666666666667 0.0007861635220125789 0.104559748427673 0.6847484276729562 0.2036163522012579 0.005503144654088053 0.0007861635220125789 0.1666666666666667 0.1666666666666667 0.1666666666666667 0.1666666666666667 0.1666666666666667 0.1666666666666667 0.0008503401360544216 0.04166666666666666 0.4549319727891156 0.4855442176870748 0.01615646258503401 0.0008503401360544216 0.1666666666666667 0.1666666666666667 0.1666666666666667 0.1666666666666667 0.1666666666666667 0.1666666666666667 0.0007575757575757575 0.03712121212121212 0.4689393939393939 0.4462121212121212 0.0462121212121212 0.0007575757575757575 0.1666666666666667 0.1666666666666667 0.1666666666666667 0.1666666666666667 0.1666666666666667 0.1666666666666667 0.0007215007215007216 0.05699855699855701 0.6111111111111112 0.3253968253968255 0.005050505050505052 0.0007215007215007216 0.08333333333333333 0.08333333333333333 0.08333333333333333 0.08333333333333333 0.5833333333333334 0.08333333333333333 0.0007824726134585291 0.01017214397496088 0.2871674491392802 0.6439749608763694 0.05712050078247262 0.0007824726134585291 0.1666666666666667 0.1666666666666667 0.1666666666666667 0.1666666666666667 0.1666666666666667 0.1666666666666667 0.0007507507507507509 0.0007507507507507509 0.2124624624624625 0.6854354354354355 0.09984984984984988 0.0007507507507507509 0.1666666666666667 0.1666666666666667 0.1666666666666667 0.1666666666666667 0.1666666666666667 0.1666666666666667 0.0007645259938837921 0.0007645259938837921 0.1200305810397554 0.6796636085626911 0.1888379204892966 0.009938837920489297 0.1666666666666667 0.1666666666666667 0.1666666666666667 0.1666666666666667 0.1666666666666667 0.1666666666666667 0.0007183908045977012 0.0007183908045977012 0.1127873563218391 0.6903735632183909 0.194683908045977 0.0007183908045977012 0.1666666666666667 0.1666666666666667 0.1666666666666667 0.1666666666666667 0.1666666666666667 0.1666666666666667 0.0008250825082508252 0.0008250825082508252 0.1443894389438944 0.688943894389439 0.1641914191419142 0.0008250825082508252 0.1666666666666667 0.1666666666666667 0.1666666666666667 0.1666666666666667 0.1666666666666667 0.1666666666666667 0.01599326599326599 0.5361952861952862 0.4200336700336701 0.0260942760942761 0.0008417508417508418 0.0008417508417508418 0.1666666666666667 0.1666666666666667 0.1666666666666667 0.1666666666666667 0.1666666666666667 0.1666666666666667 0.005185185185185187 0.3162962962962964 0.6229629629629631 0.05407407407407408 0.0007407407407407408 0.0007407407407407408 0.1666666666666667 0.1666666666666667 0.1666666666666667 0.1666666666666667 0.1666666666666667 0.1666666666666667 0.0007716049382716051 0.1720679012345679 0.6674382716049384 0.158179012345679 0.0007716049382716051 0.0007716049382716051 0.1666666666666667 0.1666666666666667 0.1666666666666667 0.1666666666666667 0.1666666666666667 0.1666666666666667 0.0007716049382716051 0.1859567901234568 0.6581790123456792 0.1535493827160494 0.0007716049382716051 0.0007716049382716051 0.1666666666666667 0.1666666666666667 0.1666666666666667 0.1666666666666667 0.1666666666666667 0.1666666666666667 0.0007309941520467838 0.2770467836257311 0.632309941520468 0.08845029239766085 0.0007309941520467838 0.0007309941520467838 0.1666666666666667 0.1666666666666667 0.1666666666666667 0.1666666666666667 0.1666666666666667 0.1666666666666667 0.01632302405498282 0.4699312714776632 0.4802405498281787 0.03178694158075601 0.000859106529209622 0.000859106529209622 0.1666666666666667 0.1666666666666667 0.1666666666666667 0.1666666666666667 0.1666666666666667 0.1666666666666667 0.009938837920489298 0.257645259938838 0.6613149847094802 0.06957186544342508 0.0007645259938837922 0.0007645259938837922 0.1666666666666667 0.1666666666666667 0.1666666666666667 0.1666666666666667 0.1666666666666667 0.1666666666666667 0.0007680491551459294 0.15284178187404 0.6551459293394778 0.1897081413210446 0.0007680491551459294 0.0007680491551459294 0.1666666666666667 0.1666666666666667 0.1666666666666667 0.1666666666666667 0.1666666666666667 0.1666666666666667 0.004901960784313726 0.1561624649859944 0.6645658263305323 0.1729691876750701 0.000700280112044818 0.000700280112044818 0.1666666666666667 0.1666666666666667 0.1666666666666667 0.1666666666666667 0.1666666666666667 0.1666666666666667 0.0007092198581560285 0.2390070921985816 0.6517730496453902 0.1070921985815603 0.0007092198581560285 0.0007092198581560285</probabilities>
		</cpt>
		<cpt id="rokap">
			<state id="x37_5_62_5" />
			<state id="x62_5_87_5" />
			<state id="x87_5_112_5" />
			<state id="x112_5_137_5" />
			<state id="x137_5_162_5" />
			<state id="x162_5_187_5" />
			<state id="x187_5_212_5" />
			<parents>jordtype</parents>
			<probabilities>0.5400384368994235 0.375912876361307 0.07815502882767458 0.005509288917360668 0.0001281229980781551 0.0001281229980781551 0.0001281229980781551 0.0001288161793121216 0.05874017776632744 0.3058096096869767 0.4536905835372923 0.1669457683885096 0.01455622826226974 0.0001288161793121216 0.0587949465500486 0.3266520894071915 0.4661078717201167 0.1353255587949466 0.01287657920310982 0.0001214771622934888 0.0001214771622934888 0.002695417789757413 0.07902474883606961 0.3551825532957609 0.4426611124724333 0.1159029649595688 0.004410683655966676 0.0001225189904435188 0.000129399585921325 0.0010351966873706 0.02549171842650104 0.1966873706004141 0.4593685300207039 0.2664337474120083 0.05085403726708075 0.001060164325470448 0.000132520540683806 0.00198780811025709 0.04373177842565598 0.2830638749006096 0.4750861383514445 0.1949377153458786 0.0001317870321560358 0.0001317870321560358 0.001054296257248287 0.03334211913547707 0.2575118608328941 0.4530838165524512 0.2547443331576173 0.0001323977227591685 0.0001323977227591685 0.0001323977227591685 0.001985965841387528 0.09651793989143387 0.395869191049914 0.5052297100489871 0.0001301066874837367 0.0001301066874837367 0.0001301066874837367 0.002862347124642207 0.08391881342701014 0.3726255529534218 0.5402029664324746</probabilities>
		</cpt>
		<cpt id="jordn">
			<state id="x0_15" />
			<state id="x15_30" />
			<state id="x30_45" />
			<state id="x45_60" />
			<state id="x60_75" />
			<state id="x75_90" />
			<state id="x90_105" />
			<state id="x105_120" />
			<state id="x_120" />
			<parents>nmin aar_mod potnmin</parents>
			<probabilities>0.003174603174603174 0.003174603174603174 0.9746031746031746 0.003174603174603174 0.003174603174603174 0.003174603174603174 0.003174603174603174 0.003174603174603174 0.003174603174603174 0.002364066193853427 0.002364066193853427 0.002364066193853427 0.9810874704491724 0.002364066193853427 0.002364066193853427 0.002364066193853427 0.002364066193853427 0.002364066193853427 0.003367003367003366 0.003367003367003366 0.003367003367003366 0.003367003367003366 0.973063973063973 0.003367003367003366 0.003367003367003366 0.003367003367003366 0.003367003367003366 0.01851851851851852 0.01851851851851852 0.01851851851851852 0.01851851851851852 0.01851851851851852 0.8518518518518519 0.01851851851851852 0.01851851851851852 0.01851851851851852 0.03703703703703703 0.03703703703703703 0.03703703703703703 0.03703703703703703 0.03703703703703703 0.03703703703703703 0.7037037037037036 0.03703703703703703 0.03703703703703703 0.1111111111111111 0.1111111111111111 0.1111111111111111 0.1111111111111111 0.1111111111111111 0.1111111111111111 0.1111111111111111 0.1111111111111111 0.1111111111111111 0.05555555555555555 0.05555555555555555 0.05555555555555555 0.05555555555555555 0.05555555555555555 0.05555555555555555 0.05555555555555555 0.05555555555555555 0.5555555555555556 0.1111111111111111 0.1111111111111111 0.1111111111111111 0.1111111111111111 0.1111111111111111 0.1111111111111111 0.1111111111111111 0.1111111111111111 0.1111111111111111 0.003174603174603174 0.003174603174603174 0.9746031746031746 0.003174603174603174 0.003174603174603174 0.003174603174603174 0.003174603174603174 0.003174603174603174 0.003174603174603174 0.002583979328165374 0.002583979328165374 0.002583979328165374 0.9793281653746769 0.002583979328165374 0.002583979328165374 0.002583979328165374 0.002583979328165374 0.002583979328165374 0.003584229390681004 0.003584229390681004 0.003584229390681004 0.003584229390681004 0.9713261648745521 0.003584229390681004 0.003584229390681004 0.003584229390681004 0.003584229390681004 0.01587301587301588 0.01587301587301588 0.01587301587301588 0.01587301587301588 0.01587301587301588 0.8730158730158731 0.01587301587301588 0.01587301587301588 0.01587301587301588 0.05555555555555555 0.05555555555555555 0.05555555555555555 0.05555555555555555 0.05555555555555555 0.05555555555555555 0.5555555555555556 0.05555555555555555 0.05555555555555555 0.05555555555555555 0.05555555555555555 0.05555555555555555 0.05555555555555555 0.05555555555555555 0.05555555555555555 0.05555555555555555 0.5555555555555556 0.05555555555555555 0.1111111111111111 0.1111111111111111 0.1111111111111111 0.1111111111111111 0.1111111111111111 0.1111111111111111 0.1111111111111111 0.1111111111111111 0.1111111111111111 0.1111111111111111 0.1111111111111111 0.1111111111111111 0.1111111111111111 0.1111111111111111 0.1111111111111111 0.1111111111111111 0.1111111111111111 0.1111111111111111 0.002525252525252525 0.4797979797979798 0.5025252525252525 0.002525252525252525 0.002525252525252525 0.002525252525252525 0.002525252525252525 0.002525252525252525 0.002525252525252525 0.002267573696145124 0.002267573696145124 0.4512471655328798 0.5328798185941043 0.002267573696145124 0.002267573696145124 0.002267573696145124 0.002267573696145124 0.002267573696145124 0.004273504273504274 0.004273504273504274 0.004273504273504274 0.3504273504273505 0.6196581196581197 0.004273504273504274 0.004273504273504274 0.004273504273504274 0.004273504273504274 0.01851851851851852 0.01851851851851852 0.01851851851851852 0.01851851851851852 0.1851851851851852 0.6851851851851852 0.01851851851851852 0.01851851851851852 0.01851851851851852 0.05555555555555555 0.05555555555555555 0.05555555555555555 0.05555555555555555 0.05555555555555555 0.5555555555555556 0.05555555555555555 0.05555555555555555 0.05555555555555555 0.1111111111111111 0.1111111111111111 0.1111111111111111 0.1111111111111111 0.1111111111111111 0.1111111111111111 0.1111111111111111 0.1111111111111111 0.1111111111111111 0.1111111111111111 0.1111111111111111 0.1111111111111111 0.1111111111111111 0.1111111111111111 0.1111111111111111 0.1111111111111111 0.1111111111111111 0.1111111111111111 0.05555555555555555 0.05555555555555555 0.05555555555555555 0.05555555555555555 0.05555555555555555 0.05555555555555555 0.05555555555555555 0.05555555555555555 0.5555555555555556 0.003703703703703704 0.9703703703703705 0.003703703703703704 0.003703703703703704 0.003703703703703704 0.003703703703703704 0.003703703703703704 0.003703703703703704 0.003703703703703704 0.002645502645502645 0.002645502645502645 0.9788359788359787 0.002645502645502645 0.002645502645502645 0.002645502645502645 0.002645502645502645 0.002645502645502645 0.002645502645502645 0.003703703703703704 0.003703703703703704 0.003703703703703704 0.9703703703703705 0.003703703703703704 0.003703703703703704 0.003703703703703704 0.003703703703703704 0.003703703703703704 0.02222222222222223 0.02222222222222223 0.02222222222222223 0.02222222222222223 0.8222222222222223 0.02222222222222223 0.02222222222222223 0.02222222222222223 0.02222222222222223 0.02777777777777778 0.02777777777777778 0.02777777777777778 0.02777777777777778 0.02777777777777778 0.7777777777777778 0.02777777777777778 0.02777777777777778 0.02777777777777778 0.1111111111111111 0.1111111111111111 0.1111111111111111 0.1111111111111111 0.1111111111111111 0.1111111111111111 0.1111111111111111 0.1111111111111111 0.1111111111111111 0.1111111111111111 0.1111111111111111 0.1111111111111111 0.1111111111111111 0.1111111111111111 0.1111111111111111 0.1111111111111111 0.1111111111111111 0.1111111111111111 0.1111111111111111 0.1111111111111111 0.1111111111111111 0.1111111111111111 0.1111111111111111 0.1111111111111111 0.1111111111111111 0.1111111111111111 0.1111111111111111 0.003086419753086419 0.9753086419753085 0.003086419753086419 0.003086419753086419 0.003086419753086419 0.003086419753086419 0.003086419753086419 0.003086419753086419 0.003086419753086419 0.002645502645502645 0.002645502645502645 0.9788359788359787 0.002645502645502645 0.002645502645502645 0.002645502645502645 0.002645502645502645 0.002645502645502645 0.002645502645502645 0.004273504273504274 0.004273504273504274 0.004273504273504274 0.9658119658119658 0.004273504273504274 0.004273504273504274 0.004273504273504274 0.004273504273504274 0.004273504273504274 0.01851851851851852 0.01851851851851852 0.01851851851851852 0.01851851851851852 0.8518518518518519 0.01851851851851852 0.01851851851851852 0.01851851851851852 0.01851851851851852 0.05555555555555555 0.05555555555555555 0.05555555555555555 0.05555555555555555 0.05555555555555555 0.5555555555555556 0.05555555555555555 0.05555555555555555 0.05555555555555555 0.1111111111111111 0.1111111111111111 0.1111111111111111 0.1111111111111111 0.1111111111111111 0.1111111111111111 0.1111111111111111 0.1111111111111111 0.1111111111111111 0.1111111111111111 0.1111111111111111 0.1111111111111111 0.1111111111111111 0.1111111111111111 0.1111111111111111 0.1111111111111111 0.1111111111111111 0.1111111111111111 0.1111111111111111 0.1111111111111111 0.1111111111111111 0.1111111111111111 0.1111111111111111 0.1111111111111111 0.1111111111111111 0.1111111111111111 0.1111111111111111 0.521072796934866 0.4521072796934867 0.003831417624521073 0.003831417624521073 0.003831417624521073 0.003831417624521073 0.003831417624521073 0.003831417624521073 0.003831417624521073 0.003003003003003003 0.4624624624624625 0.5165165165165165 0.003003003003003003 0.003003003003003003 0.003003003003003003 0.003003003003003003 0.003003003003003003 0.003003003003003003 0.003831417624521073 0.003831417624521073 0.727969348659004 0.2452107279693487 0.003831417624521073 0.003831417624521073 0.003831417624521073 0.003831417624521073 0.003831417624521073 0.02777777777777778 0.02777777777777778 0.02777777777777778 0.7777777777777778 0.02777777777777778 0.02777777777777778 0.02777777777777778 0.02777777777777778 0.02777777777777778 0.01851851851851852 0.01851851851851852 0.01851851851851852 0.01851851851851852 0.5185185185185185 0.3518518518518519 0.01851851851851852 0.01851851851851852 0.01851851851851852 0.1111111111111111 0.1111111111111111 0.1111111111111111 0.1111111111111111 0.1111111111111111 0.1111111111111111 0.1111111111111111 0.1111111111111111 0.1111111111111111 0.1111111111111111 0.1111111111111111 0.1111111111111111 0.1111111111111111 0.1111111111111111 0.1111111111111111 0.1111111111111111 0.1111111111111111 0.1111111111111111 0.1111111111111111 0.1111111111111111 0.1111111111111111 0.1111111111111111 0.1111111111111111 0.1111111111111111 0.1111111111111111 0.1111111111111111 0.1111111111111111 0.9759759759759759 0.003003003003003002 0.003003003003003002 0.003003003003003002 0.003003003003003002 0.003003003003003002 0.003003003003003002 0.003003003003003002 0.003003003003003002 0.002469135802469135 0.9802469135802468 0.002469135802469135 0.002469135802469135 0.002469135802469135 0.002469135802469135 0.002469135802469135 0.002469135802469135 0.002469135802469135 0.004830917874396136 0.004830917874396136 0.9613526570048311 0.004830917874396136 0.004830917874396136 0.004830917874396136 0.004830917874396136 0.004830917874396136 0.004830917874396136 0.02222222222222223 0.02222222222222223 0.02222222222222223 0.8222222222222223 0.02222222222222223 0.02222222222222223 0.02222222222222223 0.02222222222222223 0.02222222222222223 0.1111111111111111 0.1111111111111111 0.1111111111111111 0.1111111111111111 0.1111111111111111 0.1111111111111111 0.1111111111111111 0.1111111111111111 0.1111111111111111 0.05555555555555555 0.05555555555555555 0.05555555555555555 0.05555555555555555 0.05555555555555555 0.5555555555555556 0.05555555555555555 0.05555555555555555 0.05555555555555555 0.1111111111111111 0.1111111111111111 0.1111111111111111 0.1111111111111111 0.1111111111111111 0.1111111111111111 0.1111111111111111 0.1111111111111111 0.1111111111111111 0.1111111111111111 0.1111111111111111 0.1111111111111111 0.1111111111111111 0.1111111111111111 0.1111111111111111 0.1111111111111111 0.1111111111111111 0.1111111111111111 0.9682539682539684 0.003968253968253969 0.003968253968253969 0.003968253968253969 0.003968253968253969 0.003968253968253969 0.003968253968253969 0.003968253968253969 0.003968253968253969 0.002777777777777777 0.9777777777777776 0.002777777777777777 0.002777777777777777 0.002777777777777777 0.002777777777777777 0.002777777777777777 0.002777777777777777 0.002777777777777777 0.004444444444444445 0.004444444444444445 0.9644444444444447 0.004444444444444445 0.004444444444444445 0.004444444444444445 0.004444444444444445 0.004444444444444445 0.004444444444444445 0.008547008547008548 0.008547008547008548 0.008547008547008548 0.9316239316239316 0.008547008547008548 0.008547008547008548 0.008547008547008548 0.008547008547008548 0.008547008547008548 0.02777777777777778 0.02777777777777778 0.02777777777777778 0.02777777777777778 0.7777777777777778 0.02777777777777778 0.02777777777777778 0.02777777777777778 0.02777777777777778 0.1111111111111111 0.1111111111111111 0.1111111111111111 0.1111111111111111 0.1111111111111111 0.1111111111111111 0.1111111111111111 0.1111111111111111 0.1111111111111111 0.1111111111111111 0.1111111111111111 0.1111111111111111 0.1111111111111111 0.1111111111111111 0.1111111111111111 0.1111111111111111 0.1111111111111111 0.1111111111111111 0.1111111111111111 0.1111111111111111 0.1111111111111111 0.1111111111111111 0.1111111111111111 0.1111111111111111 0.1111111111111111 0.1111111111111111 0.1111111111111111 0.9703703703703705 0.003703703703703704 0.003703703703703704 0.003703703703703704 0.003703703703703704 0.003703703703703704 0.003703703703703704 0.003703703703703704 0.003703703703703704 0.4874551971326166 0.4874551971326166 0.003584229390681004 0.003584229390681004 0.003584229390681004 0.003584229390681004 0.003584229390681004 0.003584229390681004 0.003584229390681004 0.002710027100271003 0.4905149051490515 0.4905149051490515 0.002710027100271003 0.002710027100271003 0.002710027100271003 0.002710027100271003 0.002710027100271003 0.002710027100271003 0.01587301587301587 0.01587301587301587 0.4444444444444444 0.4444444444444444 0.01587301587301587 0.01587301587301587 0.01587301587301587 0.01587301587301587 0.01587301587301587 0.03703703703703703 0.03703703703703703 0.03703703703703703 0.3703703703703703 0.3703703703703703 0.03703703703703703 0.03703703703703703 0.03703703703703703 0.03703703703703703 0.1111111111111111 0.1111111111111111 0.1111111111111111 0.1111111111111111 0.1111111111111111 0.1111111111111111 0.1111111111111111 0.1111111111111111 0.1111111111111111 0.05555555555555555 0.05555555555555555 0.05555555555555555 0.05555555555555555 0.05555555555555555 0.05555555555555555 0.5555555555555556 0.05555555555555555 0.05555555555555555 0.1111111111111111 0.1111111111111111 0.1111111111111111 0.1111111111111111 0.1111111111111111 0.1111111111111111 0.1111111111111111 0.1111111111111111 0.1111111111111111 0.9777777777777776 0.002777777777777777 0.002777777777777777 0.002777777777777777 0.002777777777777777 0.002777777777777777 0.002777777777777777 0.002777777777777777 0.002777777777777777 0.9766081871345028 0.002923976608187134 0.002923976608187134 0.002923976608187134 0.002923976608187134 0.002923976608187134 0.002923976608187134 0.002923976608187134 0.002923976608187134 0.003367003367003366 0.973063973063973 0.003367003367003366 0.003367003367003366 0.003367003367003366 0.003367003367003366 0.003367003367003366 0.003367003367003366 0.003367003367003366 0.02777777777777778 0.02777777777777778 0.7777777777777778 0.02777777777777778 0.02777777777777778 0.02777777777777778 0.02777777777777778 0.02777777777777778 0.02777777777777778 0.05555555555555555 0.05555555555555555 0.05555555555555555 0.5555555555555556 0.05555555555555555 0.05555555555555555 0.05555555555555555 0.05555555555555555 0.05555555555555555 0.05555555555555555 0.05555555555555555 0.05555555555555555 0.05555555555555555 0.5555555555555556 0.05555555555555555 0.05555555555555555 0.05555555555555555 0.05555555555555555 0.1111111111111111 0.1111111111111111 0.1111111111111111 0.1111111111111111 0.1111111111111111 0.1111111111111111 0.1111111111111111 0.1111111111111111 0.1111111111111111 0.1111111111111111 0.1111111111111111 0.1111111111111111 0.1111111111111111 0.1111111111111111 0.1111111111111111 0.1111111111111111 0.1111111111111111 0.1111111111111111 0.9797979797979798 0.002525252525252525 0.002525252525252525 0.002525252525252525 0.002525252525252525 0.002525252525252525 0.002525252525252525 0.002525252525252525 0.002525252525252525 0.9746031746031746 0.003174603174603174 0.003174603174603174 0.003174603174603174 0.003174603174603174 0.003174603174603174 0.003174603174603174 0.003174603174603174 0.003174603174603174 0.004444444444444445 0.9644444444444447 0.004444444444444445 0.004444444444444445 0.004444444444444445 0.004444444444444445 0.004444444444444445 0.004444444444444445 0.004444444444444445 0.02222222222222223 0.02222222222222223 0.8222222222222223 0.02222222222222223 0.02222222222222223 0.02222222222222223 0.02222222222222223 0.02222222222222223 0.02222222222222223 0.1111111111111111 0.1111111111111111 0.1111111111111111 0.1111111111111111 0.1111111111111111 0.1111111111111111 0.1111111111111111 0.1111111111111111 0.1111111111111111 0.1111111111111111 0.1111111111111111 0.1111111111111111 0.1111111111111111 0.1111111111111111 0.1111111111111111 0.1111111111111111 0.1111111111111111 0.1111111111111111 0.1111111111111111 0.1111111111111111 0.1111111111111111 0.1111111111111111 0.1111111111111111 0.1111111111111111 0.1111111111111111 0.1111111111111111 0.1111111111111111 0.05555555555555555 0.05555555555555555 0.05555555555555555 0.05555555555555555 0.05555555555555555 0.05555555555555555 0.5555555555555556 0.05555555555555555 0.05555555555555555 0.002645502645502645 0.002645502645502645 0.002645502645502645 0.9788359788359787 0.002645502645502645 0.002645502645502645 0.002645502645502645 0.002645502645502645 0.002645502645502645 0.001371742112482853 0.01371742112482853 0.001371742112482853 0.001371742112482853 0.9766803840877913 0.001371742112482853 0.001371742112482853 0.001371742112482853 0.001371742112482853 0.003003003003003002 0.003003003003003002 0.003003003003003002 0.003003003003003002 0.003003003003003002 0.9489489489489489 0.003003003003003002 0.003003003003003002 0.03003003003003003 0.002469135802469135 0.002469135802469135 0.002469135802469135 0.002469135802469135 0.002469135802469135 0.002469135802469135 0.9802469135802468 0.002469135802469135 0.002469135802469135 0.00411522633744856 0.00411522633744856 0.00411522633744856 0.00411522633744856 0.00411522633744856 0.00411522633744856 0.00411522633744856 0.9670781893004117 0.00411522633744856 0.006944444444444444 0.006944444444444444 0.006944444444444444 0.006944444444444444 0.006944444444444444 0.006944444444444444 0.006944444444444444 0.006944444444444444 0.9444444444444444 0.01111111111111111 0.01111111111111111 0.01111111111111111 0.01111111111111111 0.01111111111111111 0.01111111111111111 0.01111111111111111 0.01111111111111111 0.9111111111111111 0.007407407407407407 0.007407407407407407 0.007407407407407407 0.007407407407407407 0.007407407407407407 0.007407407407407407 0.007407407407407407 0.007407407407407407 0.9407407407407407 0.001984126984126984 0.001984126984126984 0.001984126984126984 0.9841269841269842 0.001984126984126984 0.001984126984126984 0.001984126984126984 0.001984126984126984 0.001984126984126984 0.001338688085676037 0.001338688085676037 0.001338688085676037 0.001338688085676037 0.9892904953145915 0.001338688085676037 0.001338688085676037 0.001338688085676037 0.001338688085676037 0.002267573696145124 0.002267573696145124 0.002267573696145124 0.002267573696145124 0.002267573696145124 0.981859410430839 0.002267573696145124 0.002267573696145124 0.002267573696145124 0.003968253968253969 0.003968253968253969 0.003968253968253969 0.003968253968253969 0.003968253968253969 0.003968253968253969 0.9682539682539684 0.003968253968253969 0.003968253968253969 0.005291005291005292 0.005291005291005292 0.005291005291005292 0.005291005291005292 0.005291005291005292 0.005291005291005292 0.005291005291005292 0.9576719576719579 0.005291005291005292 0.007407407407407407 0.007407407407407407 0.007407407407407407 0.007407407407407407 0.007407407407407407 0.007407407407407407 0.007407407407407407 0.007407407407407407 0.9407407407407407 0.007407407407407407 0.007407407407407407 0.007407407407407407 0.007407407407407407 0.007407407407407407 0.007407407407407407 0.007407407407407407 0.007407407407407407 0.9407407407407407 0.007407407407407407 0.007407407407407407 0.007407407407407407 0.007407407407407407 0.007407407407407407 0.007407407407407407 0.007407407407407407 0.007407407407407407 0.9407407407407407 0.002136752136752137 0.002136752136752137 0.5213675213675214 0.4636752136752137 0.002136752136752137 0.002136752136752137 0.002136752136752137 0.002136752136752137 0.002136752136752137 0.001564945226917058 0.001564945226917058 0.001564945226917058 0.4945226917057902 0.4945226917057902 0.001564945226917058 0.001564945226917058 0.001564945226917058 0.001564945226917058 0.001915708812260536 0.001915708812260536 0.001915708812260536 0.001915708812260536 0.5536398467432949 0.4329501915708811 0.001915708812260536 0.001915708812260536 0.001915708812260536 0.003472222222222223 0.003472222222222223 0.003472222222222223 0.003472222222222223 0.003472222222222223 0.6284722222222223 0.3472222222222223 0.003472222222222223 0.003472222222222223 0.005291005291005292 0.005291005291005292 0.005291005291005292 0.005291005291005292 0.005291005291005292 0.005291005291005292 0.5291005291005292 0.4338624338624339 0.005291005291005292 0.008547008547008548 0.008547008547008548 0.008547008547008548 0.008547008547008548 0.008547008547008548 0.008547008547008548 0.008547008547008548 0.3931623931623932 0.5470085470085471 0.01587301587301587 0.01587301587301587 0.01587301587301587 0.01587301587301587 0.01587301587301587 0.01587301587301587 0.01587301587301587 0.01587301587301587 0.8730158730158729 0.008547008547008548 0.008547008547008548 0.008547008547008548 0.008547008547008548 0.008547008547008548 0.008547008547008548 0.008547008547008548 0.008547008547008548 0.9316239316239316 0.002415458937198067 0.002415458937198067 0.9806763285024154 0.002415458937198067 0.002415458937198067 0.002415458937198067 0.002415458937198067 0.002415458937198067 0.002415458937198067 0.00205761316872428 0.00205761316872428 0.0205761316872428 0.9650205761316872 0.00205761316872428 0.00205761316872428 0.00205761316872428 0.00205761316872428 0.00205761316872428 0.001821493624772313 0.001821493624772313 0.001821493624772313 0.001821493624772313 0.9854280510018214 0.001821493624772313 0.001821493624772313 0.001821493624772313 0.001821493624772313 0.003367003367003366 0.003367003367003366 0.003367003367003366 0.003367003367003366 0.003367003367003366 0.973063973063973 0.003367003367003366 0.003367003367003366 0.003367003367003366 0.00462962962962963 0.00462962962962963 0.00462962962962963 0.00462962962962963 0.00462962962962963 0.00462962962962963 0.962962962962963 0.00462962962962963 0.00462962962962963 0.006944444444444446 0.006944444444444446 0.006944444444444446 0.006944444444444446 0.006944444444444446 0.006944444444444446 0.006944444444444446 0.9444444444444446 0.006944444444444446 0.01851851851851852 0.01851851851851852 0.01851851851851852 0.01851851851851852 0.01851851851851852 0.01851851851851852 0.01851851851851852 0.01851851851851852 0.8518518518518517 0.00505050505050505 0.00505050505050505 0.00505050505050505 0.00505050505050505 0.00505050505050505 0.00505050505050505 0.00505050505050505 0.00505050505050505 0.9595959595959596 0.00202020202020202 0.00202020202020202 0.9838383838383838 0.00202020202020202 0.00202020202020202 0.00202020202020202 0.00202020202020202 0.00202020202020202 0.00202020202020202 0.00154320987654321 0.00154320987654321 0.00154320987654321 0.9876543209876542 0.00154320987654321 0.00154320987654321 0.00154320987654321 0.00154320987654321 0.00154320987654321 0.001949317738791423 0.001949317738791423 0.001949317738791423 0.001949317738791423 0.9844054580896686 0.001949317738791423 0.001949317738791423 0.001949317738791423 0.001949317738791423 0.003703703703703704 0.003703703703703704 0.003703703703703704 0.003703703703703704 0.003703703703703704 0.9703703703703705 0.003703703703703704 0.003703703703703704 0.003703703703703704 0.004444444444444445 0.004444444444444445 0.004444444444444445 0.004444444444444445 0.004444444444444445 0.004444444444444445 0.9644444444444447 0.004444444444444445 0.004444444444444445 0.00925925925925926 0.00925925925925926 0.00925925925925926 0.00925925925925926 0.00925925925925926 0.00925925925925926 0.00925925925925926 0.925925925925926 0.00925925925925926 0.01587301587301587 0.01587301587301587 0.01587301587301587 0.01587301587301587 0.01587301587301587 0.01587301587301587 0.01587301587301587 0.01587301587301587 0.8730158730158729 0.006172839506172839 0.006172839506172839 0.006172839506172839 0.006172839506172839 0.006172839506172839 0.006172839506172839 0.006172839506172839 0.006172839506172839 0.9506172839506172 0.00205761316872428 0.3724279835390946 0.6131687242798354 0.00205761316872428 0.00205761316872428 0.00205761316872428 0.00205761316872428 0.00205761316872428 0.00205761316872428 0.001821493624772313 0.001821493624772313 0.575591985428051 0.4116575591985427 0.001821493624772313 0.001821493624772313 0.001821493624772313 0.001821493624772313 0.001821493624772313 0.01851851851851851 0.001851851851851851 0.001851851851851851 0.4185185185185184 0.5518518518518518 0.001851851851851851 0.001851851851851851 0.001851851851851851 0.001851851851851851 0.002469135802469136 0.002469135802469136 0.002469135802469136 0.002469135802469136 0.3802469135802469 0.6024691358024692 0.002469135802469136 0.002469135802469136 0.002469135802469136 0.006944444444444446 0.006944444444444446 0.006944444444444446 0.006944444444444446 0.006944444444444446 0.6944444444444445 0.2569444444444445 0.006944444444444446 0.006944444444444446 0.006944444444444446 0.006944444444444446 0.006944444444444446 0.006944444444444446 0.006944444444444446 0.006944444444444446 0.2569444444444445 0.6944444444444445 0.006944444444444446 0.01587301587301587 0.01587301587301587 0.01587301587301587 0.01587301587301587 0.01587301587301587 0.01587301587301587 0.01587301587301587 0.3015873015873016 0.5873015873015872 0.007936507936507936 0.007936507936507936 0.007936507936507936 0.007936507936507936 0.007936507936507936 0.007936507936507936 0.007936507936507936 0.007936507936507936 0.9365079365079364 0.00205761316872428 0.9835390946502057 0.00205761316872428 0.00205761316872428 0.00205761316872428 0.00205761316872428 0.00205761316872428 0.00205761316872428 0.00205761316872428 0.001633986928104575 0.001633986928104575 0.9869281045751632 0.001633986928104575 0.001633986928104575 0.001633986928104575 0.001633986928104575 0.001633986928104575 0.001633986928104575 0.002267573696145124 0.002267573696145124 0.002267573696145124 0.981859410430839 0.002267573696145124 0.002267573696145124 0.002267573696145124 0.002267573696145124 0.002267573696145124 0.003472222222222223 0.003472222222222223 0.003472222222222223 0.003472222222222223 0.9722222222222224 0.003472222222222223 0.003472222222222223 0.003472222222222223 0.003472222222222223 0.00462962962962963 0.00462962962962963 0.00462962962962963 0.00462962962962963 0.00462962962962963 0.962962962962963 0.00462962962962963 0.00462962962962963 0.00462962962962963 0.006535947712418302 0.006535947712418302 0.006535947712418302 0.006535947712418302 0.006535947712418302 0.006535947712418302 0.9477124183006538 0.006535947712418302 0.006535947712418302 0.01388888888888889 0.01388888888888889 0.01388888888888889 0.01388888888888889 0.01388888888888889 0.01388888888888889 0.01388888888888889 0.8888888888888891 0.01388888888888889 0.006172839506172839 0.006172839506172839 0.006172839506172839 0.006172839506172839 0.006172839506172839 0.006172839506172839 0.006172839506172839 0.006172839506172839 0.9506172839506172 0.002267573696145124 0.981859410430839 0.002267573696145124 0.002267573696145124 0.002267573696145124 0.002267573696145124 0.002267573696145124 0.002267573696145124 0.002267573696145124 0.001610305958132045 0.001610305958132045 0.9871175523349435 0.001610305958132045 0.001610305958132045 0.001610305958132045 0.001610305958132045 0.001610305958132045 0.001610305958132045 0.001736111111111111 0.001736111111111111 0.001736111111111111 0.9861111111111112 0.001736111111111111 0.001736111111111111 0.001736111111111111 0.001736111111111111 0.001736111111111111 0.002469135802469135 0.002469135802469135 0.002469135802469135 0.002469135802469135 0.9802469135802468 0.002469135802469135 0.002469135802469135 0.002469135802469135 0.002469135802469135 0.005291005291005292 0.005291005291005292 0.005291005291005292 0.005291005291005292 0.005291005291005292 0.9576719576719579 0.005291005291005292 0.005291005291005292 0.005291005291005292 0.006535947712418302 0.006535947712418302 0.006535947712418302 0.006535947712418302 0.006535947712418302 0.006535947712418302 0.9477124183006538 0.006535947712418302 0.006535947712418302 0.01587301587301588 0.01587301587301588 0.01587301587301588 0.01587301587301588 0.01587301587301588 0.01587301587301588 0.01587301587301588 0.8730158730158731 0.01587301587301588 0.00505050505050505 0.00505050505050505 0.00505050505050505 0.00505050505050505 0.00505050505050505 0.00505050505050505 0.00505050505050505 0.00505050505050505 0.9595959595959596 0.5241545893719807 0.4589371980676328 0.002415458937198068 0.002415458937198068 0.002415458937198068 0.002415458937198068 0.002415458937198068 0.002415458937198068 0.002415458937198068 0.001443001443001443 0.417027417027417 0.5728715728715728 0.001443001443001443 0.001443001443001443 0.001443001443001443 0.001443001443001443 0.001443001443001443 0.001443001443001443 0.002364066193853428 0.002364066193853428 0.5555555555555556 0.4278959810874705 0.002364066193853428 0.002364066193853428 0.002364066193853428 0.002364066193853428 0.002364066193853428 0.002777777777777778 0.002777777777777778 0.002777777777777778 0.5527777777777778 0.4277777777777778 0.002777777777777778 0.002777777777777778 0.002777777777777778 0.002777777777777778 0.005291005291005292 0.005291005291005292 0.005291005291005292 0.005291005291005292 0.5767195767195769 0.3862433862433863 0.005291005291005292 0.005291005291005292 0.005291005291005292 0.008547008547008548 0.008547008547008548 0.008547008547008548 0.008547008547008548 0.008547008547008548 0.5470085470085471 0.3931623931623932 0.008547008547008548 0.008547008547008548 0.00584795321637427 0.00584795321637427 0.00584795321637427 0.00584795321637427 0.00584795321637427 0.00584795321637427 0.4269005847953217 0.5321637426900586 0.00584795321637427 0.006944444444444444 0.006944444444444444 0.006944444444444444 0.006944444444444444 0.006944444444444444 0.006944444444444444 0.006944444444444444 0.006944444444444444 0.9444444444444444 0.9797979797979798 0.002525252525252525 0.002525252525252525 0.002525252525252525 0.002525252525252525 0.002525252525252525 0.002525252525252525 0.002525252525252525 0.002525252525252525 0.001683501683501683 0.9865319865319864 0.001683501683501683 0.001683501683501683 0.001683501683501683 0.001683501683501683 0.001683501683501683 0.001683501683501683 0.001683501683501683 0.002222222222222222 0.002222222222222222 0.9822222222222221 0.002222222222222222 0.002222222222222222 0.002222222222222222 0.002222222222222222 0.002222222222222222 0.002222222222222222 0.003584229390681004 0.003584229390681004 0.003584229390681004 0.9713261648745521 0.003584229390681004 0.003584229390681004 0.003584229390681004 0.003584229390681004 0.003584229390681004 0.003584229390681004 0.003584229390681004 0.003584229390681004 0.003584229390681004 0.9713261648745521 0.003584229390681004 0.003584229390681004 0.003584229390681004 0.003584229390681004 0.0101010101010101 0.0101010101010101 0.0101010101010101 0.0101010101010101 0.0101010101010101 0.9191919191919193 0.0101010101010101 0.0101010101010101 0.0101010101010101 0.01234567901234568 0.01234567901234568 0.01234567901234568 0.01234567901234568 0.01234567901234568 0.01234567901234568 0.9012345679012347 0.01234567901234568 0.01234567901234568 0.006944444444444446 0.006944444444444446 0.006944444444444446 0.006944444444444446 0.006944444444444446 0.006944444444444446 0.006944444444444446 0.9444444444444446 0.006944444444444446 0.9814814814814813 0.002314814814814814 0.002314814814814814 0.002314814814814814 0.002314814814814814 0.002314814814814814 0.002314814814814814 0.002314814814814814 0.002314814814814814 0.001501501501501501 0.9879879879879878 0.001501501501501501 0.001501501501501501 0.001501501501501501 0.001501501501501501 0.001501501501501501 0.001501501501501501 0.001501501501501501 0.001949317738791423 0.001949317738791423 0.9844054580896686 0.001949317738791423 0.001949317738791423 0.001949317738791423 0.001949317738791423 0.001949317738791423 0.001949317738791423 0.002923976608187134 0.002923976608187134 0.002923976608187134 0.9766081871345028 0.002923976608187134 0.002923976608187134 0.002923976608187134 0.002923976608187134 0.002923976608187134 0.003472222222222223 0.003472222222222223 0.003472222222222223 0.003472222222222223 0.9722222222222224 0.003472222222222223 0.003472222222222223 0.003472222222222223 0.003472222222222223 0.00617283950617284 0.00617283950617284 0.00617283950617284 0.00617283950617284 0.00617283950617284 0.9506172839506174 0.00617283950617284 0.00617283950617284 0.00617283950617284 0.02222222222222223 0.02222222222222223 0.02222222222222223 0.02222222222222223 0.02222222222222223 0.02222222222222223 0.8222222222222223 0.02222222222222223 0.02222222222222223 0.006535947712418302 0.006535947712418302 0.006535947712418302 0.006535947712418302 0.006535947712418302 0.006535947712418302 0.006535947712418302 0.9477124183006538 0.006535947712418302 0.003003003003003002 0.003003003003003002 0.003003003003003002 0.003003003003003002 0.9759759759759759 0.003003003003003002 0.003003003003003002 0.003003003003003002 0.003003003003003002 0.00165837479270315 0.00165837479270315 0.00165837479270315 0.00165837479270315 0.00165837479270315 0.9867330016583746 0.00165837479270315 0.00165837479270315 0.00165837479270315 0.001915708812260536 0.001915708812260536 0.001915708812260536 0.001915708812260536 0.001915708812260536 0.001915708812260536 0.9846743295019156 0.001915708812260536 0.001915708812260536 0.001736111111111111 0.001736111111111111 0.001736111111111111 0.001736111111111111 0.001736111111111111 0.001736111111111111 0.001736111111111111 0.9861111111111112 0.001736111111111111 0.002583979328165374 0.002583979328165374 0.002583979328165374 0.002583979328165374 0.002583979328165374 0.002583979328165374 0.002583979328165374 0.002583979328165374 0.979328165374677 0.00308641975308642 0.00308641975308642 0.00308641975308642 0.00308641975308642 0.00308641975308642 0.00308641975308642 0.00308641975308642 0.00308641975308642 0.9753086419753086 0.003968253968253968 0.003968253968253968 0.003968253968253968 0.003968253968253968 0.003968253968253968 0.003968253968253968 0.003968253968253968 0.003968253968253968 0.9682539682539681 0.001949317738791423 0.001949317738791423 0.001949317738791423 0.001949317738791423 0.001949317738791423 0.001949317738791423 0.001949317738791423 0.001949317738791423 0.9844054580896686 0.002777777777777777 0.002777777777777777 0.002777777777777777 0.002777777777777777 0.9777777777777776 0.002777777777777777 0.002777777777777777 0.002777777777777777 0.002777777777777777 0.001610305958132045 0.001610305958132045 0.001610305958132045 0.001610305958132045 0.001610305958132045 0.9871175523349435 0.001610305958132045 0.001610305958132045 0.001610305958132045 0.001851851851851851 0.001851851851851851 0.001851851851851851 0.001851851851851851 0.001851851851851851 0.001851851851851851 0.9851851851851851 0.001851851851851851 0.001851851851851851 0.00154320987654321 0.00154320987654321 0.00154320987654321 0.00154320987654321 0.00154320987654321 0.00154320987654321 0.00154320987654321 0.9876543209876542 0.00154320987654321 0.002178649237472767 0.002178649237472767 0.002178649237472767 0.002178649237472767 0.002178649237472767 0.002178649237472767 0.002178649237472767 0.002178649237472767 0.982570806100218 0.002923976608187134 0.002923976608187134 0.002923976608187134 0.002923976608187134 0.002923976608187134 0.002923976608187134 0.002923976608187134 0.002923976608187134 0.9766081871345029 0.004629629629629629 0.004629629629629629 0.004629629629629629 0.004629629629629629 0.004629629629629629 0.004629629629629629 0.004629629629629629 0.004629629629629629 0.9629629629629629 0.001763668430335097 0.001763668430335097 0.001763668430335097 0.001763668430335097 0.001763668430335097 0.001763668430335097 0.001763668430335097 0.001763668430335097 0.9858906525573192 0.00326797385620915 0.00326797385620915 0.00326797385620915 0.5326797385620915 0.4444444444444444 0.00326797385620915 0.00326797385620915 0.00326797385620915 0.00326797385620915 0.001633986928104575 0.001633986928104575 0.001633986928104575 0.001633986928104575 0.5898692810457516 0.3986928104575163 0.001633986928104575 0.001633986928104575 0.001633986928104575 0.00202020202020202 0.00202020202020202 0.00202020202020202 0.00202020202020202 0.00202020202020202 0.5292929292929293 0.4565656565656566 0.00202020202020202 0.00202020202020202 0.001915708812260536 0.001915708812260536 0.001915708812260536 0.001915708812260536 0.001915708812260536 0.001915708812260536 0.4329501915708811 0.5536398467432949 0.001915708812260536 0.001915708812260536 0.001915708812260536 0.001915708812260536 0.001915708812260536 0.001915708812260536 0.001915708812260536 0.001915708812260536 0.5191570881226053 0.4674329501915709 0.00308641975308642 0.00308641975308642 0.00308641975308642 0.00308641975308642 0.00308641975308642 0.00308641975308642 0.00308641975308642 0.00308641975308642 0.9753086419753086 0.003831417624521073 0.003831417624521073 0.003831417624521073 0.003831417624521073 0.003831417624521073 0.003831417624521073 0.003831417624521073 0.003831417624521073 0.9693486590038314 0.02136752136752137 0.002136752136752137 0.002136752136752137 0.002136752136752137 0.002136752136752137 0.002136752136752137 0.002136752136752137 0.002136752136752137 0.9636752136752138 0.002178649237472766 0.002178649237472766 0.002178649237472766 0.9825708061002177 0.002178649237472766 0.002178649237472766 0.002178649237472766 0.002178649237472766 0.002178649237472766 0.001709401709401709 0.001709401709401709 0.001709401709401709 0.001709401709401709 0.9863247863247862 0.001709401709401709 0.001709401709401709 0.001709401709401709 0.001709401709401709 0.002178649237472766 0.002178649237472766 0.002178649237472766 0.002178649237472766 0.002178649237472766 0.9825708061002177 0.002178649237472766 0.002178649237472766 0.002178649237472766 0.002136752136752137 0.002136752136752137 0.002136752136752137 0.002136752136752137 0.002136752136752137 0.002136752136752137 0.9829059829059829 0.002136752136752137 0.002136752136752137 0.001851851851851851 0.001851851851851851 0.001851851851851851 0.001851851851851851 0.001851851851851851 0.001851851851851851 0.001851851851851851 0.9851851851851851 0.001851851851851851 0.002849002849002849 0.002849002849002849 0.002849002849002849 0.002849002849002849 0.002849002849002849 0.002849002849002849 0.002849002849002849 0.002849002849002849 0.9772079772079773 0.004444444444444444 0.004444444444444444 0.004444444444444444 0.004444444444444444 0.004444444444444444 0.004444444444444444 0.004444444444444444 0.004444444444444444 0.9644444444444444 0.001709401709401709 0.001709401709401709 0.001709401709401709 0.001709401709401709 0.001709401709401709 0.001709401709401709 0.001709401709401709 0.001709401709401709 0.9863247863247864 0.002415458937198067 0.002415458937198067 0.002415458937198067 0.9806763285024154 0.002415458937198067 0.002415458937198067 0.002415458937198067 0.002415458937198067 0.002415458937198067 0.001763668430335097 0.001763668430335097 0.001763668430335097 0.001763668430335097 0.9858906525573192 0.001763668430335097 0.001763668430335097 0.001763668430335097 0.001763668430335097 0.001949317738791423 0.001949317738791423 0.001949317738791423 0.001949317738791423 0.001949317738791423 0.9844054580896686 0.001949317738791423 0.001949317738791423 0.001949317738791423 0.001736111111111111 0.001736111111111111 0.001736111111111111 0.001736111111111111 0.001736111111111111 0.001736111111111111 0.9861111111111112 0.001736111111111111 0.001736111111111111 0.002645502645502645 0.002645502645502645 0.002645502645502645 0.002645502645502645 0.002645502645502645 0.002645502645502645 0.002645502645502645 0.9788359788359787 0.002645502645502645 0.002923976608187134 0.002923976608187134 0.002923976608187134 0.002923976608187134 0.002923976608187134 0.002923976608187134 0.002923976608187134 0.002923976608187134 0.9766081871345029 0.004830917874396135 0.004830917874396135 0.004830917874396135 0.004830917874396135 0.004830917874396135 0.004830917874396135 0.004830917874396135 0.004830917874396135 0.9613526570048309 0.00202020202020202 0.00202020202020202 0.00202020202020202 0.00202020202020202 0.00202020202020202 0.00202020202020202 0.00202020202020202 0.00202020202020202 0.9838383838383838 0.00202020202020202 0.00202020202020202 0.4929292929292929 0.4929292929292929 0.00202020202020202 0.00202020202020202 0.00202020202020202 0.00202020202020202 0.00202020202020202 0.001610305958132045 0.001610305958132045 0.001610305958132045 0.5088566827697262 0.4798711755233493 0.001610305958132045 0.001610305958132045 0.001610305958132045 0.001610305958132045 0.002136752136752137 0.002136752136752137 0.002136752136752137 0.002136752136752137 0.4829059829059829 0.5021367521367521 0.002136752136752137 0.002136752136752137 0.002136752136752137 0.001709401709401709 0.001709401709401709 0.001709401709401709 0.001709401709401709 0.001709401709401709 0.494017094017094 0.494017094017094 0.001709401709401709 0.001709401709401709 0.001915708812260536 0.001915708812260536 0.001915708812260536 0.001915708812260536 0.001915708812260536 0.001915708812260536 0.4846743295019157 0.5019157088122606 0.001915708812260536 0.003174603174603174 0.003174603174603174 0.003174603174603174 0.003174603174603174 0.003174603174603174 0.003174603174603174 0.003174603174603174 0.4888888888888889 0.4888888888888889 0.003367003367003367 0.003367003367003367 0.003367003367003367 0.003367003367003367 0.003367003367003367 0.003367003367003367 0.003367003367003367 0.003367003367003367 0.9730639730639732 0.001763668430335097 0.001763668430335097 0.001763668430335097 0.001763668430335097 0.001763668430335097 0.001763668430335097 0.001763668430335097 0.001763668430335097 0.9858906525573192 0.003174603174603174 0.003174603174603174 0.9746031746031746 0.003174603174603174 0.003174603174603174 0.003174603174603174 0.003174603174603174 0.003174603174603174 0.003174603174603174 0.001792114695340502 0.001792114695340502 0.001792114695340502 0.985663082437276 0.001792114695340502 0.001792114695340502 0.001792114695340502 0.001792114695340502 0.001792114695340502 0.001821493624772313 0.001821493624772313 0.001821493624772313 0.001821493624772313 0.9854280510018214 0.001821493624772313 0.001821493624772313 0.001821493624772313 0.001821493624772313 0.002136752136752137 0.002136752136752137 0.002136752136752137 0.002136752136752137 0.002136752136752137 0.9829059829059829 0.002136752136752137 0.002136752136752137 0.002136752136752137 0.00205761316872428 0.00205761316872428 0.00205761316872428 0.00205761316872428 0.00205761316872428 0.00205761316872428 0.9835390946502057 0.00205761316872428 0.00205761316872428 0.003968253968253969 0.003968253968253969 0.003968253968253969 0.003968253968253969 0.003968253968253969 0.003968253968253969 0.003968253968253969 0.9682539682539684 0.003968253968253969 0.005291005291005291 0.005291005291005291 0.005291005291005291 0.005291005291005291 0.005291005291005291 0.005291005291005291 0.005291005291005291 0.005291005291005291 0.9576719576719576 0.002222222222222222 0.002222222222222222 0.002222222222222222 0.002222222222222222 0.002222222222222222 0.002222222222222222 0.002222222222222222 0.002222222222222222 0.9822222222222223 0.003086419753086419 0.003086419753086419 0.9753086419753085 0.003086419753086419 0.003086419753086419 0.003086419753086419 0.003086419753086419 0.003086419753086419 0.003086419753086419 0.001709401709401709 0.001709401709401709 0.001709401709401709 0.9863247863247862 0.001709401709401709 0.001709401709401709 0.001709401709401709 0.001709401709401709 0.001709401709401709 0.002136752136752137 0.002136752136752137 0.002136752136752137 0.002136752136752137 0.9829059829059829 0.002136752136752137 0.002136752136752137 0.002136752136752137 0.002136752136752137 0.00165837479270315 0.00165837479270315 0.00165837479270315 0.00165837479270315 0.00165837479270315 0.9867330016583746 0.00165837479270315 0.00165837479270315 0.00165837479270315 0.002525252525252525 0.002525252525252525 0.002525252525252525 0.002525252525252525 0.002525252525252525 0.02525252525252525 0.9570707070707071 0.002525252525252525 0.002525252525252525 0.002710027100271002 0.002710027100271002 0.002710027100271002 0.002710027100271002 0.002710027100271002 0.002710027100271002 0.002710027100271002 0.978319783197832 0.002710027100271002 0.003831417624521073 0.003831417624521073 0.003831417624521073 0.003831417624521073 0.003831417624521073 0.003831417624521073 0.003831417624521073 0.003831417624521073 0.9693486590038314 0.00202020202020202 0.00202020202020202 0.00202020202020202 0.00202020202020202 0.00202020202020202 0.00202020202020202 0.00202020202020202 0.00202020202020202 0.9838383838383838 0.002645502645502645 0.455026455026455 0.5264550264550264 0.002645502645502645 0.002645502645502645 0.002645502645502645 0.002645502645502645 0.002645502645502645 0.002645502645502645 0.001683501683501683 0.001683501683501683 0.5016835016835016 0.4865319865319865 0.001683501683501683 0.001683501683501683 0.001683501683501683 0.001683501683501683 0.001683501683501683 0.001851851851851851 0.001851851851851851 0.001851851851851851 0.4351851851851851 0.5518518518518518 0.001851851851851851 0.001851851851851851 0.001851851851851851 0.001851851851851851 0.001501501501501501 0.001501501501501501 0.001501501501501501 0.001501501501501501 0.5555555555555555 0.4339339339339339 0.001501501501501501 0.001501501501501501 0.001501501501501501 0.002645502645502645 0.002645502645502645 0.002645502645502645 0.002645502645502645 0.002645502645502645 0.3835978835978835 0.5978835978835978 0.002645502645502645 0.002645502645502645 0.003472222222222223 0.003472222222222223 0.003472222222222223 0.003472222222222223 0.003472222222222223 0.003472222222222223 0.4409722222222223 0.5347222222222223 0.003472222222222223 0.004115226337448559 0.004115226337448559 0.004115226337448559 0.004115226337448559 0.004115226337448559 0.004115226337448559 0.004115226337448559 0.448559670781893 0.522633744855967 0.001984126984126984 0.001984126984126984 0.001984126984126984 0.001984126984126984 0.001984126984126984 0.001984126984126984 0.001984126984126984 0.001984126984126984 0.9841269841269842 0.002710027100271002 0.978319783197832 0.002710027100271002 0.002710027100271002 0.002710027100271002 0.002710027100271002 0.002710027100271002 0.002710027100271002 0.002710027100271002 0.001851851851851851 0.001851851851851851 0.9851851851851851 0.001851851851851851 0.001851851851851851 0.001851851851851851 0.001851851851851851 0.001851851851851851 0.001851851851851851 0.001883239171374764 0.001883239171374764 0.001883239171374764 0.9849340866290017 0.001883239171374764 0.001883239171374764 0.001883239171374764 0.001883239171374764 0.001883239171374764 0.00165837479270315 0.00165837479270315 0.00165837479270315 0.00165837479270315 0.9867330016583746 0.00165837479270315 0.00165837479270315 0.00165837479270315 0.00165837479270315 0.002645502645502645 0.002645502645502645 0.002645502645502645 0.002645502645502645 0.002645502645502645 0.9788359788359787 0.002645502645502645 0.002645502645502645 0.002645502645502645 0.003472222222222223 0.003472222222222223 0.003472222222222223 0.003472222222222223 0.003472222222222223 0.003472222222222223 0.9722222222222224 0.003472222222222223 0.003472222222222223 0.005291005291005292 0.005291005291005292 0.005291005291005292 0.005291005291005292 0.005291005291005292 0.005291005291005292 0.005291005291005292 0.9576719576719579 0.005291005291005292 0.001851851851851852 0.001851851851851852 0.001851851851851852 0.001851851851851852 0.001851851851851852 0.001851851851851852 0.001851851851851852 0.001851851851851852 0.9851851851851853 0.002777777777777777 0.9777777777777776 0.002777777777777777 0.002777777777777777 0.002777777777777777 0.002777777777777777 0.002777777777777777 0.002777777777777777 0.002777777777777777 0.001709401709401709 0.001709401709401709 0.9863247863247862 0.001709401709401709 0.001709401709401709 0.001709401709401709 0.001709401709401709 0.001709401709401709 0.001709401709401709 0.001984126984126984 0.001984126984126984 0.001984126984126984 0.9841269841269842 0.001984126984126984 0.001984126984126984 0.001984126984126984 0.001984126984126984 0.001984126984126984 0.001709401709401709 0.001709401709401709 0.001709401709401709 0.001709401709401709 0.9863247863247862 0.001709401709401709 0.001709401709401709 0.001709401709401709 0.001709401709401709 0.00205761316872428 0.00205761316872428 0.00205761316872428 0.00205761316872428 0.00205761316872428 0.9835390946502057 0.00205761316872428 0.00205761316872428 0.00205761316872428 0.003267973856209149 0.003267973856209149 0.003267973856209149 0.003267973856209149 0.003267973856209149 0.003267973856209149 0.9738562091503267 0.003267973856209149 0.003267973856209149 0.005050505050505051 0.005050505050505051 0.005050505050505051 0.005050505050505051 0.005050505050505051 0.005050505050505051 0.005050505050505051 0.9595959595959598 0.005050505050505051 0.001915708812260536 0.001915708812260536 0.001915708812260536 0.001915708812260536 0.001915708812260536 0.001915708812260536 0.001915708812260536 0.001915708812260536 0.9846743295019158 0.007407407407407409 0.007407407407407409 0.007407407407407409 0.007407407407407409 0.007407407407407409 0.9407407407407409 0.007407407407407409 0.007407407407407409 0.007407407407407409 0.003584229390681004 0.003584229390681004 0.003584229390681004 0.003584229390681004 0.003584229390681004 0.003584229390681004 0.9713261648745521 0.003584229390681004 0.003584229390681004 0.005291005291005292 0.005291005291005292 0.005291005291005292 0.005291005291005292 0.005291005291005292 0.005291005291005292 0.005291005291005292 0.9576719576719579 0.005291005291005292 0.005847953216374269 0.005847953216374269 0.005847953216374269 0.005847953216374269 0.005847953216374269 0.005847953216374269 0.005847953216374269 0.005847953216374269 0.9532163742690057 0.006944444444444444 0.006944444444444444 0.006944444444444444 0.006944444444444444 0.006944444444444444 0.006944444444444444 0.006944444444444444 0.006944444444444444 0.9444444444444444 0.006944444444444444 0.006944444444444444 0.006944444444444444 0.006944444444444444 0.006944444444444444 0.006944444444444444 0.006944444444444444 0.006944444444444444 0.9444444444444444 0.009259259259259259 0.009259259259259259 0.009259259259259259 0.009259259259259259 0.009259259259259259 0.009259259259259259 0.009259259259259259 0.009259259259259259 0.9259259259259258 0.004629629629629629 0.004629629629629629 0.004629629629629629 0.004629629629629629 0.004629629629629629 0.004629629629629629 0.004629629629629629 0.004629629629629629 0.9629629629629629 0.004444444444444445 0.004444444444444445 0.004444444444444445 0.004444444444444445 0.004444444444444445 0.9644444444444447 0.004444444444444445 0.004444444444444445 0.004444444444444445 0.004273504273504274 0.004273504273504274 0.004273504273504274 0.004273504273504274 0.004273504273504274 0.004273504273504274 0.9658119658119658 0.004273504273504274 0.004273504273504274 0.007407407407407409 0.007407407407407409 0.007407407407407409 0.007407407407407409 0.007407407407407409 0.007407407407407409 0.007407407407407409 0.9407407407407409 0.007407407407407409 0.004629629629629629 0.004629629629629629 0.004629629629629629 0.004629629629629629 0.004629629629629629 0.004629629629629629 0.004629629629629629 0.004629629629629629 0.9629629629629629 0.007936507936507936 0.007936507936507936 0.007936507936507936 0.007936507936507936 0.007936507936507936 0.007936507936507936 0.007936507936507936 0.007936507936507936 0.9365079365079364 0.008547008547008548 0.008547008547008548 0.008547008547008548 0.008547008547008548 0.008547008547008548 0.008547008547008548 0.008547008547008548 0.008547008547008548 0.9316239316239316 0.01587301587301587 0.01587301587301587 0.01587301587301587 0.01587301587301587 0.01587301587301587 0.01587301587301587 0.01587301587301587 0.01587301587301587 0.8730158730158729 0.004830917874396135 0.004830917874396135 0.004830917874396135 0.004830917874396135 0.004830917874396135 0.004830917874396135 0.004830917874396135 0.004830917874396135 0.9613526570048309 0.006535947712418302 0.006535947712418302 0.006535947712418302 0.006535947712418302 0.477124183006536 0.477124183006536 0.006535947712418302 0.006535947712418302 0.006535947712418302 0.006535947712418302 0.006535947712418302 0.006535947712418302 0.006535947712418302 0.006535947712418302 0.3006535947712419 0.6535947712418302 0.006535947712418302 0.006535947712418302 0.00462962962962963 0.00462962962962963 0.00462962962962963 0.00462962962962963 0.00462962962962963 0.00462962962962963 0.4212962962962963 0.5462962962962964 0.00462962962962963 0.007936507936507936 0.007936507936507936 0.007936507936507936 0.007936507936507936 0.007936507936507936 0.007936507936507936 0.007936507936507936 0.5079365079365079 0.4365079365079365 0.007407407407407407 0.007407407407407407 0.007407407407407407 0.007407407407407407 0.007407407407407407 0.007407407407407407 0.007407407407407407 0.007407407407407407 0.9407407407407407 0.0101010101010101 0.0101010101010101 0.0101010101010101 0.0101010101010101 0.0101010101010101 0.0101010101010101 0.0101010101010101 0.0101010101010101 0.9191919191919192 0.01234567901234568 0.01234567901234568 0.01234567901234568 0.01234567901234568 0.01234567901234568 0.01234567901234568 0.01234567901234568 0.01234567901234568 0.9012345679012345 0.004629629629629629 0.004629629629629629 0.004629629629629629 0.004629629629629629 0.004629629629629629 0.004629629629629629 0.004629629629629629 0.004629629629629629 0.9629629629629629 0.005555555555555557 0.005555555555555557 0.005555555555555557 0.005555555555555557 0.9555555555555557 0.005555555555555557 0.005555555555555557 0.005555555555555557 0.005555555555555557 0.003831417624521073 0.003831417624521073 0.003831417624521073 0.003831417624521073 0.003831417624521073 0.9693486590038316 0.003831417624521073 0.003831417624521073 0.003831417624521073 0.003584229390681004 0.003584229390681004 0.003584229390681004 0.003584229390681004 0.003584229390681004 0.003584229390681004 0.9713261648745521 0.003584229390681004 0.003584229390681004 0.006535947712418302 0.006535947712418302 0.006535947712418302 0.006535947712418302 0.006535947712418302 0.006535947712418302 0.006535947712418302 0.9477124183006538 0.006535947712418302 0.006172839506172839 0.006172839506172839 0.006172839506172839 0.006172839506172839 0.006172839506172839 0.006172839506172839 0.006172839506172839 0.006172839506172839 0.9506172839506172 0.006172839506172839 0.006172839506172839 0.006172839506172839 0.006172839506172839 0.006172839506172839 0.006172839506172839 0.006172839506172839 0.006172839506172839 0.9506172839506172 0.0101010101010101 0.0101010101010101 0.0101010101010101 0.0101010101010101 0.0101010101010101 0.0101010101010101 0.0101010101010101 0.0101010101010101 0.9191919191919192 0.004115226337448559 0.004115226337448559 0.004115226337448559 0.004115226337448559 0.004115226337448559 0.004115226337448559 0.004115226337448559 0.004115226337448559 0.9670781893004115 0.0101010101010101 0.0101010101010101 0.0101010101010101 0.0101010101010101 0.9191919191919193 0.0101010101010101 0.0101010101010101 0.0101010101010101 0.0101010101010101 0.005291005291005292 0.005291005291005292 0.005291005291005292 0.005291005291005292 0.005291005291005292 0.9576719576719579 0.005291005291005292 0.005291005291005292 0.005291005291005292 0.004273504273504274 0.004273504273504274 0.004273504273504274 0.004273504273504274 0.004273504273504274 0.004273504273504274 0.9658119658119658 0.004273504273504274 0.004273504273504274 0.004830917874396136 0.004830917874396136 0.004830917874396136 0.004830917874396136 0.004830917874396136 0.004830917874396136 0.004830917874396136 0.9613526570048311 0.004830917874396136 0.007407407407407407 0.007407407407407407 0.007407407407407407 0.007407407407407407 0.007407407407407407 0.007407407407407407 0.007407407407407407 0.007407407407407407 0.9407407407407407 0.0065359477124183 0.0065359477124183 0.0065359477124183 0.0065359477124183 0.0065359477124183 0.0065359477124183 0.0065359477124183 0.0065359477124183 0.9477124183006536 0.01587301587301587 0.01587301587301587 0.01587301587301587 0.01587301587301587 0.01587301587301587 0.01587301587301587 0.01587301587301587 0.01587301587301587 0.8730158730158729 0.003968253968253968 0.003968253968253968 0.003968253968253968 0.003968253968253968 0.003968253968253968 0.003968253968253968 0.003968253968253968 0.003968253968253968 0.9682539682539681 0.007936507936507938 0.007936507936507938 0.007936507936507938 0.507936507936508 0.4365079365079366 0.007936507936507938 0.007936507936507938 0.007936507936507938 0.007936507936507938 0.004830917874396136 0.004830917874396136 0.004830917874396136 0.004830917874396136 0.3961352657004831 0.5700483091787441 0.004830917874396136 0.004830917874396136 0.004830917874396136 0.006944444444444446 0.006944444444444446 0.006944444444444446 0.006944444444444446 0.006944444444444446 0.5069444444444445 0.4444444444444445 0.006944444444444446 0.006944444444444446 0.007407407407407409 0.007407407407407409 0.007407407407407409 0.007407407407407409 0.007407407407407409 0.007407407407407409 0.3407407407407408 0.6074074074074075 0.007407407407407409 0.007407407407407409 0.007407407407407409 0.007407407407407409 0.007407407407407409 0.007407407407407409 0.007407407407407409 0.007407407407407409 0.6740740740740742 0.2740740740740741 0.007936507936507936 0.007936507936507936 0.007936507936507936 0.007936507936507936 0.007936507936507936 0.007936507936507936 0.007936507936507936 0.007936507936507936 0.9365079365079364 0.01388888888888889 0.01388888888888889 0.01388888888888889 0.01388888888888889 0.01388888888888889 0.01388888888888889 0.01388888888888889 0.01388888888888889 0.8888888888888888 0.005291005291005291 0.005291005291005291 0.005291005291005291 0.005291005291005291 0.005291005291005291 0.005291005291005291 0.005291005291005291 0.005291005291005291 0.9576719576719576 0.006535947712418302 0.006535947712418302 0.006535947712418302 0.9477124183006538 0.006535947712418302 0.006535947712418302 0.006535947712418302 0.006535947712418302 0.006535947712418302 0.00411522633744856 0.00411522633744856 0.00411522633744856 0.00411522633744856 0.9670781893004117 0.00411522633744856 0.00411522633744856 0.00411522633744856 0.00411522633744856 0.00584795321637427 0.00584795321637427 0.00584795321637427 0.00584795321637427 0.00584795321637427 0.9532163742690061 0.00584795321637427 0.00584795321637427 0.00584795321637427 0.00584795321637427 0.00584795321637427 0.00584795321637427 0.00584795321637427 0.00584795321637427 0.00584795321637427 0.9532163742690061 0.00584795321637427 0.00584795321637427 0.005050505050505051 0.005050505050505051 0.005050505050505051 0.005050505050505051 0.005050505050505051 0.005050505050505051 0.005050505050505051 0.9595959595959598 0.005050505050505051 0.01234567901234568 0.01234567901234568 0.01234567901234568 0.01234567901234568 0.01234567901234568 0.01234567901234568 0.01234567901234568 0.01234567901234568 0.9012345679012345 0.0101010101010101 0.0101010101010101 0.0101010101010101 0.0101010101010101 0.0101010101010101 0.0101010101010101 0.0101010101010101 0.0101010101010101 0.9191919191919192 0.005847953216374269 0.005847953216374269 0.005847953216374269 0.005847953216374269 0.005847953216374269 0.005847953216374269 0.005847953216374269 0.005847953216374269 0.9532163742690057 0.006535947712418302 0.006535947712418302 0.006535947712418302 0.9477124183006538 0.006535947712418302 0.006535947712418302 0.006535947712418302 0.006535947712418302 0.006535947712418302 0.005291005291005292 0.005291005291005292 0.005291005291005292 0.005291005291005292 0.9576719576719579 0.005291005291005292 0.005291005291005292 0.005291005291005292 0.005291005291005292 0.007407407407407409 0.007407407407407409 0.007407407407407409 0.007407407407407409 0.007407407407407409 0.9407407407407409 0.007407407407407409 0.007407407407407409 0.007407407407407409 0.006535947712418302 0.06535947712418302 0.006535947712418302 0.006535947712418302 0.006535947712418302 0.006535947712418302 0.8888888888888891 0.006535947712418302 0.006535947712418302 0.008547008547008548 0.008547008547008548 0.008547008547008548 0.008547008547008548 0.008547008547008548 0.008547008547008548 0.008547008547008548 0.9316239316239316 0.008547008547008548 0.01111111111111111 0.01111111111111111 0.01111111111111111 0.01111111111111111 0.01111111111111111 0.01111111111111111 0.01111111111111111 0.01111111111111111 0.9111111111111111 0.01111111111111111 0.01111111111111111 0.01111111111111111 0.01111111111111111 0.01111111111111111 0.01111111111111111 0.01111111111111111 0.01111111111111111 0.9111111111111111 0.004273504273504274 0.004273504273504274 0.004273504273504274 0.004273504273504274 0.004273504273504274 0.004273504273504274 0.004273504273504274 0.004273504273504274 0.9658119658119658 0.00925925925925926 0.00925925925925926 0.5092592592592593 0.4259259259259259 0.00925925925925926 0.00925925925925926 0.00925925925925926 0.00925925925925926 0.00925925925925926 0.005555555555555557 0.005555555555555557 0.005555555555555557 0.3555555555555556 0.6055555555555556 0.005555555555555557 0.005555555555555557 0.005555555555555557 0.005555555555555557 0.004830917874396136 0.004830917874396136 0.004830917874396136 0.004830917874396136 0.4396135265700484 0.5265700483091788 0.004830917874396136 0.004830917874396136 0.004830917874396136 0.00617283950617284 0.00617283950617284 0.00617283950617284 0.00617283950617284 0.00617283950617284 0.3950617283950618 0.5617283950617284 0.00617283950617284 0.00617283950617284 0.005555555555555557 0.005555555555555557 0.005555555555555557 0.005555555555555557 0.005555555555555557 0.005555555555555557 0.4555555555555556 0.5055555555555556 0.005555555555555557 0.01234567901234568 0.01234567901234568 0.01234567901234568 0.01234567901234568 0.01234567901234568 0.01234567901234568 0.01234567901234568 0.45679012345679 0.45679012345679 0.007407407407407407 0.007407407407407407 0.007407407407407407 0.007407407407407407 0.007407407407407407 0.007407407407407407 0.007407407407407407 0.007407407407407407 0.9407407407407407 0.00505050505050505 0.00505050505050505 0.00505050505050505 0.00505050505050505 0.00505050505050505 0.00505050505050505 0.00505050505050505 0.00505050505050505 0.9595959595959596 0.005291005291005292 0.005291005291005292 0.9576719576719579 0.005291005291005292 0.005291005291005292 0.005291005291005292 0.005291005291005292 0.005291005291005292 0.005291005291005292 0.005050505050505051 0.005050505050505051 0.005050505050505051 0.9595959595959598 0.005050505050505051 0.005050505050505051 0.005050505050505051 0.005050505050505051 0.005050505050505051 0.003472222222222223 0.003472222222222223 0.003472222222222223 0.003472222222222223 0.9722222222222224 0.003472222222222223 0.003472222222222223 0.003472222222222223 0.003472222222222223 0.005050505050505051 0.005050505050505051 0.005050505050505051 0.005050505050505051 0.005050505050505051 0.9595959595959598 0.005050505050505051 0.005050505050505051 0.005050505050505051 0.005291005291005292 0.005291005291005292 0.005291005291005292 0.005291005291005292 0.005291005291005292 0.005291005291005292 0.9576719576719579 0.005291005291005292 0.005291005291005292 0.01111111111111111 0.01111111111111111 0.01111111111111111 0.01111111111111111 0.01111111111111111 0.01111111111111111 0.01111111111111111 0.9111111111111112 0.01111111111111111 0.01587301587301587 0.01587301587301587 0.01587301587301587 0.01587301587301587 0.01587301587301587 0.01587301587301587 0.01587301587301587 0.01587301587301587 0.8730158730158729 0.003703703703703703 0.003703703703703703 0.003703703703703703 0.003703703703703703 0.003703703703703703 0.003703703703703703 0.003703703703703703 0.003703703703703703 0.9703703703703703 0.00925925925925926 0.00925925925925926 0.925925925925926 0.00925925925925926 0.00925925925925926 0.00925925925925926 0.00925925925925926 0.00925925925925926 0.00925925925925926 0.00462962962962963 0.00462962962962963 0.00462962962962963 0.962962962962963 0.00462962962962963 0.00462962962962963 0.00462962962962963 0.00462962962962963 0.00462962962962963 0.005291005291005292 0.005291005291005292 0.005291005291005292 0.005291005291005292 0.9576719576719579 0.005291005291005292 0.005291005291005292 0.005291005291005292 0.005291005291005292 0.00584795321637427 0.00584795321637427 0.00584795321637427 0.00584795321637427 0.00584795321637427 0.9532163742690061 0.00584795321637427 0.00584795321637427 0.00584795321637427 0.007936507936507938 0.007936507936507938 0.007936507936507938 0.007936507936507938 0.007936507936507938 0.007936507936507938 0.9365079365079366 0.007936507936507938 0.007936507936507938 0.005291005291005292 0.005291005291005292 0.005291005291005292 0.005291005291005292 0.005291005291005292 0.005291005291005292 0.005291005291005292 0.9576719576719579 0.005291005291005292 0.01111111111111111 0.01111111111111111 0.01111111111111111 0.01111111111111111 0.01111111111111111 0.01111111111111111 0.01111111111111111 0.01111111111111111 0.9111111111111111 0.005291005291005291 